<?xml version="1.0"?>
<MethodSetup Method="BDT::BDT">
  <GeneralInfo>
    <Info name="TMVA Release" value="4.2.1 [262657]"/>
    <Info name="ROOT Release" value="6.18/04 [397828]"/>
    <Info name="Creator" value="jbhyun"/>
    <Info name="Date" value="Fri Jan  8 20:48:15 2021"/>
    <Info name="Host" value="Linux SFT-ubuntu-1804-3 4.15.0-54-generic #58-Ubuntu SMP Mon Jun 24 10:55:24 UTC 2019 x86_64 x86_64 x86_64 GNU/Linux"/>
    <Info name="Dir" value="/home/jbhyun/Forge/BDTTrain/tmva"/>
    <Info name="Training events" value="38314"/>
    <Info name="TrainingTime" value="1.65998197e+00"/>
    <Info name="AnalysisType" value="Classification"/>
  </GeneralInfo>
  <Options>
    <Option name="V" modified="Yes">False</Option>
    <Option name="VerbosityLevel" modified="No">Default</Option>
    <Option name="VarTransform" modified="No">None</Option>
    <Option name="H" modified="Yes">False</Option>
    <Option name="CreateMVAPdfs" modified="No">False</Option>
    <Option name="IgnoreNegWeightsInTraining" modified="No">False</Option>
    <Option name="NTrees" modified="Yes">30</Option>
    <Option name="MaxDepth" modified="Yes">3</Option>
    <Option name="MinNodeSize" modified="Yes">2%</Option>
    <Option name="nCuts" modified="Yes">100</Option>
    <Option name="BoostType" modified="Yes">AdaBoost</Option>
    <Option name="AdaBoostR2Loss" modified="No">quadratic</Option>
    <Option name="UseBaggedBoost" modified="Yes">True</Option>
    <Option name="Shrinkage" modified="No">1.000000e+00</Option>
    <Option name="AdaBoostBeta" modified="Yes">5.000000e-01</Option>
    <Option name="UseRandomisedTrees" modified="No">False</Option>
    <Option name="UseNvars" modified="No">6</Option>
    <Option name="UsePoissonNvars" modified="No">True</Option>
    <Option name="BaggedSampleFraction" modified="Yes">5.000000e-01</Option>
    <Option name="UseYesNoLeaf" modified="No">True</Option>
    <Option name="NegWeightTreatment" modified="No">inverseboostnegweights</Option>
    <Option name="Css" modified="No">1.000000e+00</Option>
    <Option name="Cts_sb" modified="No">1.000000e+00</Option>
    <Option name="Ctb_ss" modified="No">1.000000e+00</Option>
    <Option name="Cbb" modified="No">1.000000e+00</Option>
    <Option name="NodePurityLimit" modified="No">5.000000e-01</Option>
    <Option name="SeparationType" modified="Yes">giniindex</Option>
    <Option name="RegressionLossFunctionBDTG" modified="No">huber</Option>
    <Option name="HuberQuantile" modified="No">7.000000e-01</Option>
    <Option name="DoBoostMonitor" modified="No">False</Option>
    <Option name="UseFisherCuts" modified="No">False</Option>
    <Option name="MinLinCorrForFisher" modified="No">8.000000e-01</Option>
    <Option name="UseExclusiveVars" modified="No">False</Option>
    <Option name="DoPreselection" modified="No">False</Option>
    <Option name="SigToBkgFraction" modified="No">1.000000e+00</Option>
    <Option name="PruneMethod" modified="No">nopruning</Option>
    <Option name="PruneStrength" modified="No">0.000000e+00</Option>
    <Option name="PruningValFraction" modified="No">5.000000e-01</Option>
    <Option name="SkipNormalization" modified="No">False</Option>
    <Option name="nEventsMin" modified="No">0</Option>
    <Option name="UseBaggedGrad" modified="No">False</Option>
    <Option name="GradBaggingFraction" modified="No">5.000000e-01</Option>
    <Option name="UseNTrainEvents" modified="No">0</Option>
    <Option name="NNodesMax" modified="No">0</Option>
  </Options>
  <Variables NVar="39">
    <Variable VarIndex="0" Expression="Nj" Label="Nj" Title="Nj" Unit="" Internal="Nj" Type="I" Min="3.00000000e+00" Max="1.20000000e+01"/>
    <Variable VarIndex="1" Expression="Nb" Label="Nb" Title="Nb" Unit="" Internal="Nb" Type="I" Min="1.00000000e+00" Max="5.00000000e+00"/>
    <Variable VarIndex="2" Expression="Ptl1" Label="Ptl1" Title="Ptl1" Unit="" Internal="Ptl1" Type="F" Min="2.00038033e+01" Max="3.52863354e+03"/>
    <Variable VarIndex="3" Expression="Ptl2" Label="Ptl2" Title="Ptl2" Unit="" Internal="Ptl2" Type="F" Min="1.00008688e+01" Max="1.80782181e+02"/>
    <Variable VarIndex="4" Expression="Ptj1" Label="Ptj1" Title="Ptj1" Unit="" Internal="Ptj1" Type="F" Min="2.63075542e+01" Max="1.25836206e+03"/>
    <Variable VarIndex="5" Expression="Ptj2" Label="Ptj2" Title="Ptj2" Unit="" Internal="Ptj2" Type="F" Min="2.51116371e+01" Max="7.36982544e+02"/>
    <Variable VarIndex="6" Expression="Ptj3" Label="Ptj3" Title="Ptj3" Unit="" Internal="Ptj3" Type="F" Min="2.50010319e+01" Max="5.22453979e+02"/>
    <Variable VarIndex="7" Expression="Ptb1" Label="Ptb1" Title="Ptb1" Unit="" Internal="Ptb1" Type="F" Min="2.50105686e+01" Max="1.14394543e+03"/>
    <Variable VarIndex="8" Expression="Ptb2" Label="Ptb2" Title="Ptb2" Unit="" Internal="Ptb2" Type="F" Min="-1.00000000e+00" Max="6.55882996e+02"/>
    <Variable VarIndex="9" Expression="MET" Label="MET" Title="MET" Unit="" Internal="MET" Type="F" Min="2.82745183e-01" Max="6.40504700e+02"/>
    <Variable VarIndex="10" Expression="dEtall" Label="dEtall" Title="dEtall" Unit="" Internal="dEtall" Type="F" Min="3.77297401e-05" Max="4.61115885e+00"/>
    <Variable VarIndex="11" Expression="dRll" Label="dRll" Title="dRll" Unit="" Internal="dRll" Type="F" Min="9.32734832e-02" Max="5.40484428e+00"/>
    <Variable VarIndex="12" Expression="dRjj12" Label="dRjj12" Title="dRjj12" Unit="" Internal="dRjj12" Type="F" Min="3.94186288e-01" Max="5.51146507e+00"/>
    <Variable VarIndex="13" Expression="dRjj23" Label="dRjj23" Title="dRjj23" Unit="" Internal="dRjj23" Type="F" Min="4.01400059e-01" Max="5.38182354e+00"/>
    <Variable VarIndex="14" Expression="dRjj13" Label="dRjj13" Title="dRjj13" Unit="" Internal="dRjj13" Type="F" Min="4.07925159e-01" Max="5.51293802e+00"/>
    <Variable VarIndex="15" Expression="dRlj11" Label="dRlj11" Title="dRlj11" Unit="" Internal="dRlj11" Type="F" Min="4.00195807e-01" Max="5.56941891e+00"/>
    <Variable VarIndex="16" Expression="dRlj12" Label="dRlj12" Title="dRlj12" Unit="" Internal="dRlj12" Type="F" Min="4.00101215e-01" Max="5.62248182e+00"/>
    <Variable VarIndex="17" Expression="dRlj13" Label="dRlj13" Title="dRlj13" Unit="" Internal="dRlj13" Type="F" Min="4.00550604e-01" Max="5.40495634e+00"/>
    <Variable VarIndex="18" Expression="dRlj21" Label="dRlj21" Title="dRlj21" Unit="" Internal="dRlj21" Type="F" Min="4.00000185e-01" Max="5.42530489e+00"/>
    <Variable VarIndex="19" Expression="dRlj22" Label="dRlj22" Title="dRlj22" Unit="" Internal="dRlj22" Type="F" Min="4.00301248e-01" Max="5.37719631e+00"/>
    <Variable VarIndex="20" Expression="dRlj23" Label="dRlj23" Title="dRlj23" Unit="" Internal="dRlj23" Type="F" Min="4.00580734e-01" Max="5.38203430e+00"/>
    <Variable VarIndex="21" Expression="dRlb11" Label="dRlb11" Title="dRlb11" Unit="" Internal="dRlb11" Type="F" Min="4.00195807e-01" Max="5.26424265e+00"/>
    <Variable VarIndex="22" Expression="dRlb21" Label="dRlb21" Title="dRlb21" Unit="" Internal="dRlb21" Type="F" Min="4.00000185e-01" Max="5.40611267e+00"/>
    <Variable VarIndex="23" Expression="MSSSF" Label="MSSSF" Title="MSSSF" Unit="" Internal="MSSSF" Type="F" Min="4.02011299e+00" Max="5.86325867e+02"/>
    <Variable VarIndex="24" Expression="Mbl11" Label="Mbl11" Title="Mbl11" Unit="" Internal="Mbl11" Type="F" Min="1.38539085e+01" Max="1.65656531e+03"/>
    <Variable VarIndex="25" Expression="Mbl12" Label="Mbl12" Title="Mbl12" Unit="" Internal="Mbl12" Type="F" Min="9.86602306e+00" Max="9.06669189e+02"/>
    <Variable VarIndex="26" Expression="Mllb1" Label="Mllb1" Title="Mllb1" Unit="" Internal="Mllb1" Type="F" Min="2.35393028e+01" Max="1.69321570e+03"/>
    <Variable VarIndex="27" Expression="Mllb2" Label="Mllb2" Title="Mllb2" Unit="" Internal="Mllb2" Type="F" Min="-1.00000000e+00" Max="7.16596130e+02"/>
    <Variable VarIndex="28" Expression="MTvl1" Label="MTvl1" Title="MTvl1" Unit="" Internal="MTvl1" Type="F" Min="8.43660164e-05" Max="8.12348022e+02"/>
    <Variable VarIndex="29" Expression="MTvl2" Label="MTvl2" Title="MTvl2" Unit="" Internal="MTvl2" Type="F" Min="6.10677060e-03" Max="5.31094666e+02"/>
    <Variable VarIndex="30" Expression="MTvll" Label="MTvll" Title="MTvll" Unit="" Internal="MTvll" Type="F" Min="2.08275602e-03" Max="8.98194092e+02"/>
    <Variable VarIndex="31" Expression="HT" Label="HT" Title="HT" Unit="" Internal="HT" Type="F" Min="7.72579269e+01" Max="2.29491650e+03"/>
    <Variable VarIndex="32" Expression="MET2HT" Label="MET2HT" Title="MET2HT" Unit="" Internal="MET2HT" Type="F" Min="3.00817483e-04" Max="1.69620459e+03"/>
    <Variable VarIndex="33" Expression="MllW_2j" Label="MllW_2j" Title="MllW_2j" Unit="" Internal="MllW_2j" Type="F" Min="5.98283577e+01" Max="1.38569995e+03"/>
    <Variable VarIndex="34" Expression="MllW_1j" Label="MllW_1j" Title="MllW_1j" Unit="" Internal="MllW_1j" Type="F" Min="8.04352283e+00" Max="5.86325867e+02"/>
    <Variable VarIndex="35" Expression="Ml1W_2jL" Label="Ml1W_2jL" Title="Ml1W_2jL" Unit="" Internal="Ml1W_2jL" Type="F" Min="2.77262344e+01" Max="1.37094238e+03"/>
    <Variable VarIndex="36" Expression="Ml1W_1jL" Label="Ml1W_1jL" Title="Ml1W_1jL" Unit="" Internal="Ml1W_1jL" Type="F" Min="1.18492107e+01" Max="1.65656531e+03"/>
    <Variable VarIndex="37" Expression="Ml2W_2jL" Label="Ml2W_2jL" Title="Ml2W_2jL" Unit="" Internal="Ml2W_2jL" Type="F" Min="2.11876488e+01" Max="1.17576672e+03"/>
    <Variable VarIndex="38" Expression="Ml2W_1jL" Label="Ml2W_1jL" Title="Ml2W_1jL" Unit="" Internal="Ml2W_1jL" Type="F" Min="8.59082317e+00" Max="1.02168921e+03"/>
  </Variables>
  <Spectators NSpec="0"/>
  <Classes NClass="2">
    <Class Name="Signal" Index="0"/>
    <Class Name="Background" Index="1"/>
  </Classes>
  <Transformations NTransformations="0"/>
  <MVAPdfs/>
  <Weights NTrees="30" AnalysisType="0">
    <BinaryTree type="DecisionTree" boostWeight="5.5010209176167824e-01" itree="0">
      <Node pos="s" depth="0" NCoef="0" IVar="23" Cut="7.3204956054687500e+01" cType="1" res="-9.9000000000000000e+01" rms="0.0000000000000000e+00" purity="4.9005696177482605e-01" nType="0">
        <Node pos="l" depth="1" NCoef="0" IVar="32" Cut="2.0107429504394531e+01" cType="1" res="-9.9000000000000000e+01" rms="0.0000000000000000e+00" purity="5.9632772207260132e-01" nType="0">
          <Node pos="l" depth="2" NCoef="0" IVar="-1" Cut="2.0146293640136719e+01" cType="0" res="-9.9000000000000000e+01" rms="0.0000000000000000e+00" purity="6.9669055938720703e-01" nType="1"/>
          <Node pos="r" depth="2" NCoef="0" IVar="3" Cut="2.1699689865112305e+01" cType="0" res="-9.9000000000000000e+01" rms="0.0000000000000000e+00" purity="3.4706941246986389e-01" nType="0">
            <Node pos="l" depth="3" NCoef="0" IVar="-1" Cut="0.0000000000000000e+00" cType="1" res="-9.9000000000000000e+01" rms="0.0000000000000000e+00" purity="6.4055198431015015e-01" nType="1"/>
            <Node pos="r" depth="3" NCoef="0" IVar="-1" Cut="0.0000000000000000e+00" cType="1" res="-9.9000000000000000e+01" rms="0.0000000000000000e+00" purity="2.5688022375106812e-01" nType="-1"/>
          </Node>
        </Node>
        <Node pos="r" depth="1" NCoef="0" IVar="-1" Cut="9.6035591125488281e+01" cType="0" res="-9.9000000000000000e+01" rms="0.0000000000000000e+00" purity="5.7640545070171356e-02" nType="-1"/>
      </Node>
    </BinaryTree>
    <BinaryTree type="DecisionTree" boostWeight="5.0351579648037548e-01" itree="1">
      <Node pos="s" depth="0" NCoef="0" IVar="23" Cut="7.2493568420410156e+01" cType="1" res="-9.9000000000000000e+01" rms="0.0000000000000000e+00" purity="4.9296188354492188e-01" nType="0">
        <Node pos="l" depth="1" NCoef="0" IVar="1" Cut="2.0000000000000000e+00" cType="0" res="-9.9000000000000000e+01" rms="0.0000000000000000e+00" purity="5.6834918260574341e-01" nType="0">
          <Node pos="l" depth="2" NCoef="0" IVar="-1" Cut="1.1674265861511230e+01" cType="0" res="-9.9000000000000000e+01" rms="0.0000000000000000e+00" purity="8.0110061168670654e-01" nType="1"/>
          <Node pos="r" depth="2" NCoef="0" IVar="3" Cut="1.6773376464843750e+01" cType="0" res="-9.9000000000000000e+01" rms="0.0000000000000000e+00" purity="4.6024495363235474e-01" nType="0">
            <Node pos="l" depth="3" NCoef="0" IVar="-1" Cut="0.0000000000000000e+00" cType="1" res="-9.9000000000000000e+01" rms="0.0000000000000000e+00" purity="6.2360161542892456e-01" nType="1"/>
            <Node pos="r" depth="3" NCoef="0" IVar="-1" Cut="0.0000000000000000e+00" cType="1" res="-9.9000000000000000e+01" rms="0.0000000000000000e+00" purity="3.1969836354255676e-01" nType="-1"/>
          </Node>
        </Node>
        <Node pos="r" depth="1" NCoef="0" IVar="-1" Cut="8.8297450542449951e-01" cType="1" res="-9.9000000000000000e+01" rms="0.0000000000000000e+00" purity="1.0373323410749435e-01" nType="-1"/>
      </Node>
    </BinaryTree>
    <BinaryTree type="DecisionTree" boostWeight="3.9114827140194430e-01" itree="2">
      <Node pos="s" depth="0" NCoef="0" IVar="23" Cut="7.8141189575195312e+01" cType="1" res="-9.9000000000000000e+01" rms="0.0000000000000000e+00" purity="4.6470767259597778e-01" nType="0">
        <Node pos="l" depth="1" NCoef="0" IVar="27" Cut="6.9121238708496094e+01" cType="0" res="-9.9000000000000000e+01" rms="0.0000000000000000e+00" purity="5.1988470554351807e-01" nType="0">
          <Node pos="l" depth="2" NCoef="0" IVar="3" Cut="1.2684963226318359e+01" cType="0" res="-9.9000000000000000e+01" rms="0.0000000000000000e+00" purity="7.6536709070205688e-01" nType="0">
            <Node pos="l" depth="3" NCoef="0" IVar="-1" Cut="0.0000000000000000e+00" cType="1" res="-9.9000000000000000e+01" rms="0.0000000000000000e+00" purity="8.4809118509292603e-01" nType="1"/>
            <Node pos="r" depth="3" NCoef="0" IVar="-1" Cut="0.0000000000000000e+00" cType="1" res="-9.9000000000000000e+01" rms="0.0000000000000000e+00" purity="4.8878633975982666e-01" nType="-1"/>
          </Node>
          <Node pos="r" depth="2" NCoef="0" IVar="9" Cut="6.0392642974853516e+01" cType="1" res="-9.9000000000000000e+01" rms="0.0000000000000000e+00" purity="4.2728027701377869e-01" nType="0">
            <Node pos="l" depth="3" NCoef="0" IVar="-1" Cut="0.0000000000000000e+00" cType="1" res="-9.9000000000000000e+01" rms="0.0000000000000000e+00" purity="5.3076791763305664e-01" nType="1"/>
            <Node pos="r" depth="3" NCoef="0" IVar="-1" Cut="0.0000000000000000e+00" cType="1" res="-9.9000000000000000e+01" rms="0.0000000000000000e+00" purity="2.8771269321441650e-01" nType="-1"/>
          </Node>
        </Node>
        <Node pos="r" depth="1" NCoef="0" IVar="-1" Cut="2.4180326461791992e+01" cType="0" res="-9.9000000000000000e+01" rms="0.0000000000000000e+00" purity="7.8571185469627380e-02" nType="-1"/>
      </Node>
    </BinaryTree>
    <BinaryTree type="DecisionTree" boostWeight="3.9718721744624264e-01" itree="3">
      <Node pos="s" depth="0" NCoef="0" IVar="27" Cut="7.0049118041992188e+01" cType="0" res="-9.9000000000000000e+01" rms="0.0000000000000000e+00" purity="4.5026862621307373e-01" nType="0">
        <Node pos="l" depth="1" NCoef="0" IVar="10" Cut="1.8507390022277832e+00" cType="1" res="-9.9000000000000000e+01" rms="0.0000000000000000e+00" purity="6.7979848384857178e-01" nType="0">
          <Node pos="l" depth="2" NCoef="0" IVar="-1" Cut="2.0573633193969727e+01" cType="1" res="-9.9000000000000000e+01" rms="0.0000000000000000e+00" purity="7.3002964258193970e-01" nType="1"/>
          <Node pos="r" depth="2" NCoef="0" IVar="-1" Cut="0.0000000000000000e+00" cType="1" res="-9.9000000000000000e+01" rms="0.0000000000000000e+00" purity="2.6093584299087524e-01" nType="-1"/>
        </Node>
        <Node pos="r" depth="1" NCoef="0" IVar="23" Cut="6.8334442138671875e+01" cType="1" res="-9.9000000000000000e+01" rms="0.0000000000000000e+00" purity="3.6882704496383667e-01" nType="0">
          <Node pos="l" depth="2" NCoef="0" IVar="32" Cut="7.6739263534545898e+00" cType="1" res="-9.9000000000000000e+01" rms="0.0000000000000000e+00" purity="4.3002909421920776e-01" nType="0">
            <Node pos="l" depth="3" NCoef="0" IVar="-1" Cut="0.0000000000000000e+00" cType="1" res="-9.9000000000000000e+01" rms="0.0000000000000000e+00" purity="5.6927132606506348e-01" nType="1"/>
            <Node pos="r" depth="3" NCoef="0" IVar="-1" Cut="0.0000000000000000e+00" cType="1" res="-9.9000000000000000e+01" rms="0.0000000000000000e+00" purity="3.4156769514083862e-01" nType="-1"/>
          </Node>
          <Node pos="r" depth="2" NCoef="0" IVar="-1" Cut="2.0466265678405762e+00" cType="1" res="-9.9000000000000000e+01" rms="0.0000000000000000e+00" purity="1.3615234196186066e-01" nType="-1"/>
        </Node>
      </Node>
    </BinaryTree>
    <BinaryTree type="DecisionTree" boostWeight="3.4439422070629205e-01" itree="4">
      <Node pos="s" depth="0" NCoef="0" IVar="23" Cut="7.3322975158691406e+01" cType="1" res="-9.9000000000000000e+01" rms="0.0000000000000000e+00" purity="4.8476308584213257e-01" nType="0">
        <Node pos="l" depth="1" NCoef="0" IVar="3" Cut="2.6913356781005859e+01" cType="0" res="-9.9000000000000000e+01" rms="0.0000000000000000e+00" purity="5.3921669721603394e-01" nType="0">
          <Node pos="l" depth="2" NCoef="0" IVar="-1" Cut="5.5839298248291016e+01" cType="0" res="-9.9000000000000000e+01" rms="0.0000000000000000e+00" purity="8.2735520601272583e-01" nType="1"/>
          <Node pos="r" depth="2" NCoef="0" IVar="38" Cut="2.9828865051269531e+01" cType="1" res="-9.9000000000000000e+01" rms="0.0000000000000000e+00" purity="4.8724481463432312e-01" nType="0">
            <Node pos="l" depth="3" NCoef="0" IVar="-1" Cut="0.0000000000000000e+00" cType="1" res="-9.9000000000000000e+01" rms="0.0000000000000000e+00" purity="7.2277152538299561e-01" nType="1"/>
            <Node pos="r" depth="3" NCoef="0" IVar="-1" Cut="0.0000000000000000e+00" cType="1" res="-9.9000000000000000e+01" rms="0.0000000000000000e+00" purity="4.2908099293708801e-01" nType="-1"/>
          </Node>
        </Node>
        <Node pos="r" depth="1" NCoef="0" IVar="-1" Cut="2.4305753707885742e+01" cType="0" res="-9.9000000000000000e+01" rms="0.0000000000000000e+00" purity="1.4813922345638275e-01" nType="-1"/>
      </Node>
    </BinaryTree>
    <BinaryTree type="DecisionTree" boostWeight="3.0443470940192086e-01" itree="5">
      <Node pos="s" depth="0" NCoef="0" IVar="23" Cut="7.1503692626953125e+01" cType="1" res="-9.9000000000000000e+01" rms="0.0000000000000000e+00" purity="4.9650636315345764e-01" nType="0">
        <Node pos="l" depth="1" NCoef="0" IVar="23" Cut="2.4846853256225586e+01" cType="0" res="-9.9000000000000000e+01" rms="0.0000000000000000e+00" purity="5.5798023939132690e-01" nType="0">
          <Node pos="l" depth="2" NCoef="0" IVar="-1" Cut="6.7026028633117676e+00" cType="1" res="-9.9000000000000000e+01" rms="0.0000000000000000e+00" purity="5.9469830989837646e-01" nType="1"/>
          <Node pos="r" depth="2" NCoef="0" IVar="2" Cut="5.3605308532714844e+01" cType="0" res="-9.9000000000000000e+01" rms="0.0000000000000000e+00" purity="2.5469601154327393e-01" nType="0">
            <Node pos="l" depth="3" NCoef="0" IVar="-1" Cut="0.0000000000000000e+00" cType="1" res="-9.9000000000000000e+01" rms="0.0000000000000000e+00" purity="5.5057662725448608e-01" nType="1"/>
            <Node pos="r" depth="3" NCoef="0" IVar="-1" Cut="0.0000000000000000e+00" cType="1" res="-9.9000000000000000e+01" rms="0.0000000000000000e+00" purity="1.4981710910797119e-01" nType="-1"/>
          </Node>
        </Node>
        <Node pos="r" depth="1" NCoef="0" IVar="-1" Cut="2.4185100555419922e+01" cType="0" res="-9.9000000000000000e+01" rms="0.0000000000000000e+00" purity="1.7549823224544525e-01" nType="-1"/>
      </Node>
    </BinaryTree>
    <BinaryTree type="DecisionTree" boostWeight="2.4990698806308853e-01" itree="6">
      <Node pos="s" depth="0" NCoef="0" IVar="23" Cut="7.7944923400878906e+01" cType="1" res="-9.9000000000000000e+01" rms="0.0000000000000000e+00" purity="4.5993325114250183e-01" nType="0">
        <Node pos="l" depth="1" NCoef="0" IVar="3" Cut="3.1962306976318359e+01" cType="0" res="-9.9000000000000000e+01" rms="0.0000000000000000e+00" purity="5.0097304582595825e-01" nType="0">
          <Node pos="l" depth="2" NCoef="0" IVar="-1" Cut="1.5351907730102539e+01" cType="1" res="-9.9000000000000000e+01" rms="0.0000000000000000e+00" purity="8.5666644573211670e-01" nType="1"/>
          <Node pos="r" depth="2" NCoef="0" IVar="32" Cut="2.4540182113647461e+01" cType="1" res="-9.9000000000000000e+01" rms="0.0000000000000000e+00" purity="4.6808847784996033e-01" nType="0">
            <Node pos="l" depth="3" NCoef="0" IVar="-1" Cut="0.0000000000000000e+00" cType="1" res="-9.9000000000000000e+01" rms="0.0000000000000000e+00" purity="5.2361404895782471e-01" nType="1"/>
            <Node pos="r" depth="3" NCoef="0" IVar="-1" Cut="0.0000000000000000e+00" cType="1" res="-9.9000000000000000e+01" rms="0.0000000000000000e+00" purity="3.0551695823669434e-01" nType="-1"/>
          </Node>
        </Node>
        <Node pos="r" depth="1" NCoef="0" IVar="-1" Cut="2.4269279479980469e+01" cType="0" res="-9.9000000000000000e+01" rms="0.0000000000000000e+00" purity="1.3002595305442810e-01" nType="-1"/>
      </Node>
    </BinaryTree>
    <BinaryTree type="DecisionTree" boostWeight="3.3100123487142796e-01" itree="7">
      <Node pos="s" depth="0" NCoef="0" IVar="23" Cut="7.9114883422851562e+01" cType="1" res="-9.9000000000000000e+01" rms="0.0000000000000000e+00" purity="4.6941882371902466e-01" nType="0">
        <Node pos="l" depth="1" NCoef="0" IVar="3" Cut="2.0023887634277344e+01" cType="0" res="-9.9000000000000000e+01" rms="0.0000000000000000e+00" purity="5.0544625520706177e-01" nType="0">
          <Node pos="l" depth="2" NCoef="0" IVar="32" Cut="1.5347562789916992e+01" cType="1" res="-9.9000000000000000e+01" rms="0.0000000000000000e+00" purity="6.6587281227111816e-01" nType="0">
            <Node pos="l" depth="3" NCoef="0" IVar="-1" Cut="0.0000000000000000e+00" cType="1" res="-9.9000000000000000e+01" rms="0.0000000000000000e+00" purity="7.7367073297500610e-01" nType="1"/>
            <Node pos="r" depth="3" NCoef="0" IVar="-1" Cut="0.0000000000000000e+00" cType="1" res="-9.9000000000000000e+01" rms="0.0000000000000000e+00" purity="4.8200368881225586e-01" nType="-1"/>
          </Node>
          <Node pos="r" depth="2" NCoef="0" IVar="27" Cut="1.0315415954589844e+02" cType="0" res="-9.9000000000000000e+01" rms="0.0000000000000000e+00" purity="4.2879435420036316e-01" nType="0">
            <Node pos="l" depth="3" NCoef="0" IVar="-1" Cut="0.0000000000000000e+00" cType="1" res="-9.9000000000000000e+01" rms="0.0000000000000000e+00" purity="6.3999199867248535e-01" nType="1"/>
            <Node pos="r" depth="3" NCoef="0" IVar="-1" Cut="0.0000000000000000e+00" cType="1" res="-9.9000000000000000e+01" rms="0.0000000000000000e+00" purity="3.8424274325370789e-01" nType="-1"/>
          </Node>
        </Node>
        <Node pos="r" depth="1" NCoef="0" IVar="-1" Cut="2.4265785217285156e+01" cType="0" res="-9.9000000000000000e+01" rms="0.0000000000000000e+00" purity="1.6802652180194855e-01" nType="-1"/>
      </Node>
    </BinaryTree>
    <BinaryTree type="DecisionTree" boostWeight="3.0358357120170093e-01" itree="8">
      <Node pos="s" depth="0" NCoef="0" IVar="23" Cut="7.3224960327148438e+01" cType="1" res="-9.9000000000000000e+01" rms="0.0000000000000000e+00" purity="4.9619442224502563e-01" nType="0">
        <Node pos="l" depth="1" NCoef="0" IVar="27" Cut="9.0157615661621094e+01" cType="0" res="-9.9000000000000000e+01" rms="0.0000000000000000e+00" purity="5.4154968261718750e-01" nType="0">
          <Node pos="l" depth="2" NCoef="0" IVar="23" Cut="2.9003808975219727e+01" cType="0" res="-9.9000000000000000e+01" rms="0.0000000000000000e+00" purity="7.3936158418655396e-01" nType="0">
            <Node pos="l" depth="3" NCoef="0" IVar="-1" Cut="0.0000000000000000e+00" cType="1" res="-9.9000000000000000e+01" rms="0.0000000000000000e+00" purity="7.8392082452774048e-01" nType="1"/>
            <Node pos="r" depth="3" NCoef="0" IVar="-1" Cut="0.0000000000000000e+00" cType="1" res="-9.9000000000000000e+01" rms="0.0000000000000000e+00" purity="4.3699064850807190e-01" nType="-1"/>
          </Node>
          <Node pos="r" depth="2" NCoef="0" IVar="0" Cut="5.0000000000000000e+00" cType="0" res="-9.9000000000000000e+01" rms="0.0000000000000000e+00" purity="4.8428276181221008e-01" nType="0">
            <Node pos="l" depth="3" NCoef="0" IVar="-1" Cut="0.0000000000000000e+00" cType="1" res="-9.9000000000000000e+01" rms="0.0000000000000000e+00" purity="6.2099754810333252e-01" nType="1"/>
            <Node pos="r" depth="3" NCoef="0" IVar="-1" Cut="0.0000000000000000e+00" cType="1" res="-9.9000000000000000e+01" rms="0.0000000000000000e+00" purity="4.2716103792190552e-01" nType="-1"/>
          </Node>
        </Node>
        <Node pos="r" depth="1" NCoef="0" IVar="-1" Cut="2.4698019027709961e+01" cType="0" res="-9.9000000000000000e+01" rms="0.0000000000000000e+00" purity="2.1231174468994141e-01" nType="-1"/>
      </Node>
    </BinaryTree>
    <BinaryTree type="DecisionTree" boostWeight="2.7989979103974988e-01" itree="9">
      <Node pos="s" depth="0" NCoef="0" IVar="10" Cut="1.8719326257705688e+00" cType="1" res="-9.9000000000000000e+01" rms="0.0000000000000000e+00" purity="4.8789042234420776e-01" nType="0">
        <Node pos="l" depth="1" NCoef="0" IVar="21" Cut="2.6156802177429199e+00" cType="0" res="-9.9000000000000000e+01" rms="0.0000000000000000e+00" purity="5.2349132299423218e-01" nType="0">
          <Node pos="l" depth="2" NCoef="0" IVar="32" Cut="4.7053604125976562e+01" cType="1" res="-9.9000000000000000e+01" rms="0.0000000000000000e+00" purity="6.7149412631988525e-01" nType="0">
            <Node pos="l" depth="3" NCoef="0" IVar="-1" Cut="0.0000000000000000e+00" cType="1" res="-9.9000000000000000e+01" rms="0.0000000000000000e+00" purity="7.1392858028411865e-01" nType="1"/>
            <Node pos="r" depth="3" NCoef="0" IVar="-1" Cut="0.0000000000000000e+00" cType="1" res="-9.9000000000000000e+01" rms="0.0000000000000000e+00" purity="3.8231277465820312e-01" nType="-1"/>
          </Node>
          <Node pos="r" depth="2" NCoef="0" IVar="27" Cut="7.9367279052734375e+01" cType="0" res="-9.9000000000000000e+01" rms="0.0000000000000000e+00" purity="4.7265374660491943e-01" nType="0">
            <Node pos="l" depth="3" NCoef="0" IVar="-1" Cut="0.0000000000000000e+00" cType="1" res="-9.9000000000000000e+01" rms="0.0000000000000000e+00" purity="6.2159162759780884e-01" nType="1"/>
            <Node pos="r" depth="3" NCoef="0" IVar="-1" Cut="0.0000000000000000e+00" cType="1" res="-9.9000000000000000e+01" rms="0.0000000000000000e+00" purity="4.2561599612236023e-01" nType="-1"/>
          </Node>
        </Node>
        <Node pos="r" depth="1" NCoef="0" IVar="-1" Cut="2.2788522243499756e+00" cType="1" res="-9.9000000000000000e+01" rms="0.0000000000000000e+00" purity="1.8357883393764496e-01" nType="-1"/>
      </Node>
    </BinaryTree>
    <BinaryTree type="DecisionTree" boostWeight="2.1266169641781291e-01" itree="10">
      <Node pos="s" depth="0" NCoef="0" IVar="23" Cut="7.2664581298828125e+01" cType="1" res="-9.9000000000000000e+01" rms="0.0000000000000000e+00" purity="4.8844891786575317e-01" nType="0">
        <Node pos="l" depth="1" NCoef="0" IVar="3" Cut="3.3648082733154297e+01" cType="0" res="-9.9000000000000000e+01" rms="0.0000000000000000e+00" purity="5.2392542362213135e-01" nType="0">
          <Node pos="l" depth="2" NCoef="0" IVar="-1" Cut="4.0000000000000000e+00" cType="0" res="-9.9000000000000000e+01" rms="0.0000000000000000e+00" purity="8.3910548686981201e-01" nType="1"/>
          <Node pos="r" depth="2" NCoef="0" IVar="38" Cut="2.6070936203002930e+01" cType="1" res="-9.9000000000000000e+01" rms="0.0000000000000000e+00" purity="5.0011241436004639e-01" nType="0">
            <Node pos="l" depth="3" NCoef="0" IVar="-1" Cut="0.0000000000000000e+00" cType="1" res="-9.9000000000000000e+01" rms="0.0000000000000000e+00" purity="7.1043521165847778e-01" nType="1"/>
            <Node pos="r" depth="3" NCoef="0" IVar="-1" Cut="0.0000000000000000e+00" cType="1" res="-9.9000000000000000e+01" rms="0.0000000000000000e+00" purity="4.6214792132377625e-01" nType="-1"/>
          </Node>
        </Node>
        <Node pos="r" depth="1" NCoef="0" IVar="-1" Cut="2.2611410140991211e+01" cType="0" res="-9.9000000000000000e+01" rms="0.0000000000000000e+00" purity="2.5672212243080139e-01" nType="-1"/>
      </Node>
    </BinaryTree>
    <BinaryTree type="DecisionTree" boostWeight="1.9734837249750931e-01" itree="11">
      <Node pos="s" depth="0" NCoef="0" IVar="23" Cut="7.7944923400878906e+01" cType="1" res="-9.9000000000000000e+01" rms="0.0000000000000000e+00" purity="5.0359821319580078e-01" nType="0">
        <Node pos="l" depth="1" NCoef="0" IVar="23" Cut="2.5233377456665039e+01" cType="0" res="-9.9000000000000000e+01" rms="0.0000000000000000e+00" purity="5.3256636857986450e-01" nType="0">
          <Node pos="l" depth="2" NCoef="0" IVar="-1" Cut="3.5364429473876953e+01" cType="0" res="-9.9000000000000000e+01" rms="0.0000000000000000e+00" purity="5.6245553493499756e-01" nType="1"/>
          <Node pos="r" depth="2" NCoef="0" IVar="-1" Cut="4.3152114868164062e+01" cType="1" res="-9.9000000000000000e+01" rms="0.0000000000000000e+00" purity="2.7403509616851807e-01" nType="-1"/>
        </Node>
        <Node pos="r" depth="1" NCoef="0" IVar="-1" Cut="2.3814136505126953e+01" cType="0" res="-9.9000000000000000e+01" rms="0.0000000000000000e+00" purity="2.3650701344013214e-01" nType="-1"/>
      </Node>
    </BinaryTree>
    <BinaryTree type="DecisionTree" boostWeight="2.0034830847782734e-01" itree="12">
      <Node pos="s" depth="0" NCoef="0" IVar="10" Cut="1.7378604412078857e+00" cType="1" res="-9.9000000000000000e+01" rms="0.0000000000000000e+00" purity="4.9429100751876831e-01" nType="0">
        <Node pos="l" depth="1" NCoef="0" IVar="3" Cut="3.0295064926147461e+01" cType="0" res="-9.9000000000000000e+01" rms="0.0000000000000000e+00" purity="5.2604788541793823e-01" nType="0">
          <Node pos="l" depth="2" NCoef="0" IVar="-1" Cut="7.3702507019042969e+01" cType="1" res="-9.9000000000000000e+01" rms="0.0000000000000000e+00" purity="7.2462236881256104e-01" nType="1"/>
          <Node pos="r" depth="2" NCoef="0" IVar="8" Cut="2.5256393432617188e+01" cType="0" res="-9.9000000000000000e+01" rms="0.0000000000000000e+00" purity="4.9689757823944092e-01" nType="0">
            <Node pos="l" depth="3" NCoef="0" IVar="-1" Cut="0.0000000000000000e+00" cType="1" res="-9.9000000000000000e+01" rms="0.0000000000000000e+00" purity="6.0668486356735229e-01" nType="1"/>
            <Node pos="r" depth="3" NCoef="0" IVar="-1" Cut="0.0000000000000000e+00" cType="1" res="-9.9000000000000000e+01" rms="0.0000000000000000e+00" purity="4.5841574668884277e-01" nType="-1"/>
          </Node>
        </Node>
        <Node pos="r" depth="1" NCoef="0" IVar="8" Cut="3.1419721603393555e+01" cType="0" res="-9.9000000000000000e+01" rms="0.0000000000000000e+00" purity="2.6757824420928955e-01" nType="0">
          <Node pos="l" depth="2" NCoef="0" IVar="-1" Cut="0.0000000000000000e+00" cType="1" res="-9.9000000000000000e+01" rms="0.0000000000000000e+00" purity="5.0766688585281372e-01" nType="1"/>
          <Node pos="r" depth="2" NCoef="0" IVar="-1" Cut="7.1124420166015625e+01" cType="1" res="-9.9000000000000000e+01" rms="0.0000000000000000e+00" purity="2.1299584209918976e-01" nType="-1"/>
        </Node>
      </Node>
    </BinaryTree>
    <BinaryTree type="DecisionTree" boostWeight="1.5463421160511648e-01" itree="13">
      <Node pos="s" depth="0" NCoef="0" IVar="10" Cut="1.8719295263290405e+00" cType="1" res="-9.9000000000000000e+01" rms="0.0000000000000000e+00" purity="5.0385761260986328e-01" nType="0">
        <Node pos="l" depth="1" NCoef="0" IVar="27" Cut="1.1119398498535156e+02" cType="0" res="-9.9000000000000000e+01" rms="0.0000000000000000e+00" purity="5.3140074014663696e-01" nType="0">
          <Node pos="l" depth="2" NCoef="0" IVar="-1" Cut="1.7074654102325439e+00" cType="1" res="-9.9000000000000000e+01" rms="0.0000000000000000e+00" purity="7.0645499229431152e-01" nType="1"/>
          <Node pos="r" depth="2" NCoef="0" IVar="38" Cut="1.2777309417724609e+02" cType="0" res="-9.9000000000000000e+01" rms="0.0000000000000000e+00" purity="5.0148952007293701e-01" nType="0">
            <Node pos="l" depth="3" NCoef="0" IVar="-1" Cut="0.0000000000000000e+00" cType="1" res="-9.9000000000000000e+01" rms="0.0000000000000000e+00" purity="7.5748169422149658e-01" nType="1"/>
            <Node pos="r" depth="3" NCoef="0" IVar="-1" Cut="0.0000000000000000e+00" cType="1" res="-9.9000000000000000e+01" rms="0.0000000000000000e+00" purity="4.8330321907997131e-01" nType="-1"/>
          </Node>
        </Node>
        <Node pos="r" depth="1" NCoef="0" IVar="-1" Cut="2.4017052650451660e+00" cType="1" res="-9.9000000000000000e+01" rms="0.0000000000000000e+00" purity="2.5356873869895935e-01" nType="-1"/>
      </Node>
    </BinaryTree>
    <BinaryTree type="DecisionTree" boostWeight="2.1557849850460847e-01" itree="14">
      <Node pos="s" depth="0" NCoef="0" IVar="10" Cut="1.9175864458084106e+00" cType="1" res="-9.9000000000000000e+01" rms="0.0000000000000000e+00" purity="5.2631944417953491e-01" nType="0">
        <Node pos="l" depth="1" NCoef="0" IVar="24" Cut="1.6556500244140625e+02" cType="0" res="-9.9000000000000000e+01" rms="0.0000000000000000e+00" purity="5.5408972501754761e-01" nType="0">
          <Node pos="l" depth="2" NCoef="0" IVar="-1" Cut="1.7037556171417236e+00" cType="1" res="-9.9000000000000000e+01" rms="0.0000000000000000e+00" purity="7.4283558130264282e-01" nType="1"/>
          <Node pos="r" depth="2" NCoef="0" IVar="32" Cut="1.5348801612854004e+01" cType="1" res="-9.9000000000000000e+01" rms="0.0000000000000000e+00" purity="5.2772659063339233e-01" nType="0">
            <Node pos="l" depth="3" NCoef="0" IVar="-1" Cut="0.0000000000000000e+00" cType="1" res="-9.9000000000000000e+01" rms="0.0000000000000000e+00" purity="5.8082997798919678e-01" nType="1"/>
            <Node pos="r" depth="3" NCoef="0" IVar="-1" Cut="0.0000000000000000e+00" cType="1" res="-9.9000000000000000e+01" rms="0.0000000000000000e+00" purity="4.4559192657470703e-01" nType="-1"/>
          </Node>
        </Node>
        <Node pos="r" depth="1" NCoef="0" IVar="-1" Cut="7.0081489562988281e+01" cType="1" res="-9.9000000000000000e+01" rms="0.0000000000000000e+00" purity="2.4766765534877777e-01" nType="-1"/>
      </Node>
    </BinaryTree>
    <BinaryTree type="DecisionTree" boostWeight="2.5158374476054451e-01" itree="15">
      <Node pos="s" depth="0" NCoef="0" IVar="23" Cut="6.4281661987304688e+01" cType="1" res="-9.9000000000000000e+01" rms="0.0000000000000000e+00" purity="5.1149380207061768e-01" nType="0">
        <Node pos="l" depth="1" NCoef="0" IVar="23" Cut="3.4458503723144531e+01" cType="0" res="-9.9000000000000000e+01" rms="0.0000000000000000e+00" purity="5.5317258834838867e-01" nType="0">
          <Node pos="l" depth="2" NCoef="0" IVar="-1" Cut="1.2107406854629517e+00" cType="1" res="-9.9000000000000000e+01" rms="0.0000000000000000e+00" purity="5.9229105710983276e-01" nType="1"/>
          <Node pos="r" depth="2" NCoef="0" IVar="2" Cut="6.0009643554687500e+01" cType="0" res="-9.9000000000000000e+01" rms="0.0000000000000000e+00" purity="4.3925321102142334e-01" nType="0">
            <Node pos="l" depth="3" NCoef="0" IVar="-1" Cut="0.0000000000000000e+00" cType="1" res="-9.9000000000000000e+01" rms="0.0000000000000000e+00" purity="6.8525195121765137e-01" nType="1"/>
            <Node pos="r" depth="3" NCoef="0" IVar="-1" Cut="0.0000000000000000e+00" cType="1" res="-9.9000000000000000e+01" rms="0.0000000000000000e+00" purity="3.7148642539978027e-01" nType="-1"/>
          </Node>
        </Node>
        <Node pos="r" depth="1" NCoef="0" IVar="3" Cut="2.3205957412719727e+01" cType="0" res="-9.9000000000000000e+01" rms="0.0000000000000000e+00" purity="3.6280584335327148e-01" nType="0">
          <Node pos="l" depth="2" NCoef="0" IVar="11" Cut="1.5954546928405762e+00" cType="1" res="-9.9000000000000000e+01" rms="0.0000000000000000e+00" purity="5.1815366744995117e-01" nType="0">
            <Node pos="l" depth="3" NCoef="0" IVar="-1" Cut="0.0000000000000000e+00" cType="1" res="-9.9000000000000000e+01" rms="0.0000000000000000e+00" purity="7.6625645160675049e-01" nType="1"/>
            <Node pos="r" depth="3" NCoef="0" IVar="-1" Cut="0.0000000000000000e+00" cType="1" res="-9.9000000000000000e+01" rms="0.0000000000000000e+00" purity="4.4531399011611938e-01" nType="-1"/>
          </Node>
          <Node pos="r" depth="2" NCoef="0" IVar="-1" Cut="2.7548260688781738e+00" cType="0" res="-9.9000000000000000e+01" rms="0.0000000000000000e+00" purity="2.4516113102436066e-01" nType="-1"/>
        </Node>
      </Node>
    </BinaryTree>
    <BinaryTree type="DecisionTree" boostWeight="1.4787378699756973e-01" itree="16">
      <Node pos="s" depth="0" NCoef="0" IVar="23" Cut="7.8060295104980469e+01" cType="1" res="-9.9000000000000000e+01" rms="0.0000000000000000e+00" purity="5.0216829776763916e-01" nType="0">
        <Node pos="l" depth="1" NCoef="0" IVar="30" Cut="1.5803233337402344e+02" cType="0" res="-9.9000000000000000e+01" rms="0.0000000000000000e+00" purity="5.2587044239044189e-01" nType="0">
          <Node pos="l" depth="2" NCoef="0" IVar="-1" Cut="4.7591735839843750e+01" cType="0" res="-9.9000000000000000e+01" rms="0.0000000000000000e+00" purity="8.4950327873229980e-01" nType="1"/>
          <Node pos="r" depth="2" NCoef="0" IVar="23" Cut="2.2428102493286133e+01" cType="0" res="-9.9000000000000000e+01" rms="0.0000000000000000e+00" purity="5.0899225473403931e-01" nType="0">
            <Node pos="l" depth="3" NCoef="0" IVar="-1" Cut="0.0000000000000000e+00" cType="1" res="-9.9000000000000000e+01" rms="0.0000000000000000e+00" purity="5.2814555168151855e-01" nType="1"/>
            <Node pos="r" depth="3" NCoef="0" IVar="-1" Cut="0.0000000000000000e+00" cType="1" res="-9.9000000000000000e+01" rms="0.0000000000000000e+00" purity="2.7354839444160461e-01" nType="-1"/>
          </Node>
        </Node>
        <Node pos="r" depth="1" NCoef="0" IVar="-1" Cut="2.2611410140991211e+01" cType="0" res="-9.9000000000000000e+01" rms="0.0000000000000000e+00" purity="2.9274335503578186e-01" nType="-1"/>
      </Node>
    </BinaryTree>
    <BinaryTree type="DecisionTree" boostWeight="2.1196882835474851e-01" itree="17">
      <Node pos="s" depth="0" NCoef="0" IVar="10" Cut="1.1731342077255249e+00" cType="1" res="-9.9000000000000000e+01" rms="0.0000000000000000e+00" purity="4.8705744743347168e-01" nType="0">
        <Node pos="l" depth="1" NCoef="0" IVar="0" Cut="5.0000000000000000e+00" cType="0" res="-9.9000000000000000e+01" rms="0.0000000000000000e+00" purity="5.4917490482330322e-01" nType="0">
          <Node pos="l" depth="2" NCoef="0" IVar="-1" Cut="2.0000000000000000e+00" cType="0" res="-9.9000000000000000e+01" rms="0.0000000000000000e+00" purity="6.6851800680160522e-01" nType="1"/>
          <Node pos="r" depth="2" NCoef="0" IVar="38" Cut="1.4979229736328125e+02" cType="0" res="-9.9000000000000000e+01" rms="0.0000000000000000e+00" purity="5.0002157688140869e-01" nType="0">
            <Node pos="l" depth="3" NCoef="0" IVar="-1" Cut="0.0000000000000000e+00" cType="1" res="-9.9000000000000000e+01" rms="0.0000000000000000e+00" purity="8.5996299982070923e-01" nType="1"/>
            <Node pos="r" depth="3" NCoef="0" IVar="-1" Cut="0.0000000000000000e+00" cType="1" res="-9.9000000000000000e+01" rms="0.0000000000000000e+00" purity="4.8147305846214294e-01" nType="-1"/>
          </Node>
        </Node>
        <Node pos="r" depth="1" NCoef="0" IVar="9" Cut="2.6868013381958008e+01" cType="1" res="-9.9000000000000000e+01" rms="0.0000000000000000e+00" purity="3.6142605543136597e-01" nType="0">
          <Node pos="l" depth="2" NCoef="0" IVar="5" Cut="6.7700714111328125e+01" cType="1" res="-9.9000000000000000e+01" rms="0.0000000000000000e+00" purity="5.5658650398254395e-01" nType="0">
            <Node pos="l" depth="3" NCoef="0" IVar="-1" Cut="0.0000000000000000e+00" cType="1" res="-9.9000000000000000e+01" rms="0.0000000000000000e+00" purity="7.0818430185317993e-01" nType="1"/>
            <Node pos="r" depth="3" NCoef="0" IVar="-1" Cut="0.0000000000000000e+00" cType="1" res="-9.9000000000000000e+01" rms="0.0000000000000000e+00" purity="4.3851545453071594e-01" nType="-1"/>
          </Node>
          <Node pos="r" depth="2" NCoef="0" IVar="-1" Cut="5.3284252166748047e+01" cType="0" res="-9.9000000000000000e+01" rms="0.0000000000000000e+00" purity="3.2732567191123962e-01" nType="-1"/>
        </Node>
      </Node>
    </BinaryTree>
    <BinaryTree type="DecisionTree" boostWeight="1.8694300544302109e-01" itree="18">
      <Node pos="s" depth="0" NCoef="0" IVar="11" Cut="2.3410456180572510e+00" cType="1" res="-9.9000000000000000e+01" rms="0.0000000000000000e+00" purity="4.9783149361610413e-01" nType="0">
        <Node pos="l" depth="1" NCoef="0" IVar="23" Cut="2.1774845123291016e+01" cType="0" res="-9.9000000000000000e+01" rms="0.0000000000000000e+00" purity="5.4790908098220825e-01" nType="0">
          <Node pos="l" depth="2" NCoef="0" IVar="-1" Cut="4.5607757568359375e+01" cType="0" res="-9.9000000000000000e+01" rms="0.0000000000000000e+00" purity="5.6989318132400513e-01" nType="1"/>
          <Node pos="r" depth="2" NCoef="0" IVar="-1" Cut="0.0000000000000000e+00" cType="1" res="-9.9000000000000000e+01" rms="0.0000000000000000e+00" purity="3.0820918083190918e-01" nType="-1"/>
        </Node>
        <Node pos="r" depth="1" NCoef="0" IVar="12" Cut="1.3586328029632568e+00" cType="0" res="-9.9000000000000000e+01" rms="0.0000000000000000e+00" purity="3.9987388253211975e-01" nType="0">
          <Node pos="l" depth="2" NCoef="0" IVar="28" Cut="6.7667366027832031e+01" cType="1" res="-9.9000000000000000e+01" rms="0.0000000000000000e+00" purity="4.3098342418670654e-01" nType="0">
            <Node pos="l" depth="3" NCoef="0" IVar="-1" Cut="0.0000000000000000e+00" cType="1" res="-9.9000000000000000e+01" rms="0.0000000000000000e+00" purity="5.1726776361465454e-01" nType="1"/>
            <Node pos="r" depth="3" NCoef="0" IVar="-1" Cut="0.0000000000000000e+00" cType="1" res="-9.9000000000000000e+01" rms="0.0000000000000000e+00" purity="3.2883441448211670e-01" nType="-1"/>
          </Node>
          <Node pos="r" depth="2" NCoef="0" IVar="-1" Cut="0.0000000000000000e+00" cType="1" res="-9.9000000000000000e+01" rms="0.0000000000000000e+00" purity="1.9427928328514099e-01" nType="-1"/>
        </Node>
      </Node>
    </BinaryTree>
    <BinaryTree type="DecisionTree" boostWeight="2.2981982723652469e-01" itree="19">
      <Node pos="s" depth="0" NCoef="0" IVar="11" Cut="1.3704633712768555e+00" cType="1" res="-9.9000000000000000e+01" rms="0.0000000000000000e+00" purity="4.7658661007881165e-01" nType="0">
        <Node pos="l" depth="1" NCoef="0" IVar="23" Cut="3.3983535766601562e+01" cType="0" res="-9.9000000000000000e+01" rms="0.0000000000000000e+00" purity="6.0873508453369141e-01" nType="0">
          <Node pos="l" depth="2" NCoef="0" IVar="-1" Cut="3.2011642456054688e+01" cType="0" res="-9.9000000000000000e+01" rms="0.0000000000000000e+00" purity="7.6892423629760742e-01" nType="1"/>
          <Node pos="r" depth="2" NCoef="0" IVar="38" Cut="4.4425022125244141e+01" cType="1" res="-9.9000000000000000e+01" rms="0.0000000000000000e+00" purity="4.7374621033668518e-01" nType="0">
            <Node pos="l" depth="3" NCoef="0" IVar="-1" Cut="0.0000000000000000e+00" cType="1" res="-9.9000000000000000e+01" rms="0.0000000000000000e+00" purity="5.9783345460891724e-01" nType="1"/>
            <Node pos="r" depth="3" NCoef="0" IVar="-1" Cut="0.0000000000000000e+00" cType="1" res="-9.9000000000000000e+01" rms="0.0000000000000000e+00" purity="3.5965976119041443e-01" nType="-1"/>
          </Node>
        </Node>
        <Node pos="r" depth="1" NCoef="0" IVar="3" Cut="1.3148664474487305e+01" cType="0" res="-9.9000000000000000e+01" rms="0.0000000000000000e+00" purity="4.3367165327072144e-01" nType="0">
          <Node pos="l" depth="2" NCoef="0" IVar="34" Cut="8.6471603393554688e+01" cType="1" res="-9.9000000000000000e+01" rms="0.0000000000000000e+00" purity="4.7669312357902527e-01" nType="0">
            <Node pos="l" depth="3" NCoef="0" IVar="-1" Cut="0.0000000000000000e+00" cType="1" res="-9.9000000000000000e+01" rms="0.0000000000000000e+00" purity="5.2392572164535522e-01" nType="1"/>
            <Node pos="r" depth="3" NCoef="0" IVar="-1" Cut="0.0000000000000000e+00" cType="1" res="-9.9000000000000000e+01" rms="0.0000000000000000e+00" purity="3.9520508050918579e-01" nType="-1"/>
          </Node>
          <Node pos="r" depth="2" NCoef="0" IVar="18" Cut="1.4751832485198975e+00" cType="1" res="-9.9000000000000000e+01" rms="0.0000000000000000e+00" purity="3.3401152491569519e-01" nType="0">
            <Node pos="l" depth="3" NCoef="0" IVar="-1" Cut="0.0000000000000000e+00" cType="1" res="-9.9000000000000000e+01" rms="0.0000000000000000e+00" purity="5.0976479053497314e-01" nType="1"/>
            <Node pos="r" depth="3" NCoef="0" IVar="-1" Cut="0.0000000000000000e+00" cType="1" res="-9.9000000000000000e+01" rms="0.0000000000000000e+00" purity="2.9667961597442627e-01" nType="-1"/>
          </Node>
        </Node>
      </Node>
    </BinaryTree>
    <BinaryTree type="DecisionTree" boostWeight="1.6880243072082346e-01" itree="20">
      <Node pos="s" depth="0" NCoef="0" IVar="30" Cut="1.3111941528320312e+02" cType="0" res="-9.9000000000000000e+01" rms="0.0000000000000000e+00" purity="4.8818099498748779e-01" nType="0">
        <Node pos="l" depth="1" NCoef="0" IVar="-1" Cut="8.9480667114257812e+01" cType="1" res="-9.9000000000000000e+01" rms="0.0000000000000000e+00" purity="7.2667998075485229e-01" nType="1"/>
        <Node pos="r" depth="1" NCoef="0" IVar="10" Cut="1.7349150180816650e+00" cType="1" res="-9.9000000000000000e+01" rms="0.0000000000000000e+00" purity="4.6631735563278198e-01" nType="0">
          <Node pos="l" depth="2" NCoef="0" IVar="0" Cut="4.0000000000000000e+00" cType="0" res="-9.9000000000000000e+01" rms="0.0000000000000000e+00" purity="4.9023529887199402e-01" nType="0">
            <Node pos="l" depth="3" NCoef="0" IVar="-1" Cut="0.0000000000000000e+00" cType="1" res="-9.9000000000000000e+01" rms="0.0000000000000000e+00" purity="5.3411936759948730e-01" nType="1"/>
            <Node pos="r" depth="3" NCoef="0" IVar="-1" Cut="0.0000000000000000e+00" cType="1" res="-9.9000000000000000e+01" rms="0.0000000000000000e+00" purity="4.1905173659324646e-01" nType="-1"/>
          </Node>
          <Node pos="r" depth="2" NCoef="0" IVar="-1" Cut="5.7908638000488281e+01" cType="1" res="-9.9000000000000000e+01" rms="0.0000000000000000e+00" purity="3.0338740348815918e-01" nType="-1"/>
        </Node>
      </Node>
    </BinaryTree>
    <BinaryTree type="DecisionTree" boostWeight="1.9190202950226873e-01" itree="21">
      <Node pos="s" depth="0" NCoef="0" IVar="38" Cut="2.8317499160766602e+01" cType="1" res="-9.9000000000000000e+01" rms="0.0000000000000000e+00" purity="4.6703830361366272e-01" nType="0">
        <Node pos="l" depth="1" NCoef="0" IVar="-1" Cut="2.6461179256439209e+00" cType="0" res="-9.9000000000000000e+01" rms="0.0000000000000000e+00" purity="6.5921944379806519e-01" nType="1"/>
        <Node pos="r" depth="1" NCoef="0" IVar="10" Cut="1.7349346876144409e+00" cType="1" res="-9.9000000000000000e+01" rms="0.0000000000000000e+00" purity="4.3364456295967102e-01" nType="0">
          <Node pos="l" depth="2" NCoef="0" IVar="3" Cut="4.3782604217529297e+01" cType="0" res="-9.9000000000000000e+01" rms="0.0000000000000000e+00" purity="4.5700433850288391e-01" nType="0">
            <Node pos="l" depth="3" NCoef="0" IVar="-1" Cut="0.0000000000000000e+00" cType="1" res="-9.9000000000000000e+01" rms="0.0000000000000000e+00" purity="7.1710038185119629e-01" nType="1"/>
            <Node pos="r" depth="3" NCoef="0" IVar="-1" Cut="0.0000000000000000e+00" cType="1" res="-9.9000000000000000e+01" rms="0.0000000000000000e+00" purity="4.4441822171211243e-01" nType="-1"/>
          </Node>
          <Node pos="r" depth="2" NCoef="0" IVar="-1" Cut="2.9104026794433594e+01" cType="0" res="-9.9000000000000000e+01" rms="0.0000000000000000e+00" purity="2.8991428017616272e-01" nType="-1"/>
        </Node>
      </Node>
    </BinaryTree>
    <BinaryTree type="DecisionTree" boostWeight="1.7431028374137464e-01" itree="22">
      <Node pos="s" depth="0" NCoef="0" IVar="30" Cut="1.4964808654785156e+02" cType="0" res="-9.9000000000000000e+01" rms="0.0000000000000000e+00" purity="5.1264572143554688e-01" nType="0">
        <Node pos="l" depth="1" NCoef="0" IVar="-1" Cut="1.3309317827224731e+00" cType="1" res="-9.9000000000000000e+01" rms="0.0000000000000000e+00" purity="7.5416219234466553e-01" nType="1"/>
        <Node pos="r" depth="1" NCoef="0" IVar="9" Cut="9.5088516235351562e+01" cType="1" res="-9.9000000000000000e+01" rms="0.0000000000000000e+00" purity="4.9866807460784912e-01" nType="0">
          <Node pos="l" depth="2" NCoef="0" IVar="23" Cut="6.6993255615234375e+01" cType="1" res="-9.9000000000000000e+01" rms="0.0000000000000000e+00" purity="5.2939116954803467e-01" nType="0">
            <Node pos="l" depth="3" NCoef="0" IVar="-1" Cut="0.0000000000000000e+00" cType="1" res="-9.9000000000000000e+01" rms="0.0000000000000000e+00" purity="5.5326932668685913e-01" nType="1"/>
            <Node pos="r" depth="3" NCoef="0" IVar="-1" Cut="0.0000000000000000e+00" cType="1" res="-9.9000000000000000e+01" rms="0.0000000000000000e+00" purity="4.1634097695350647e-01" nType="-1"/>
          </Node>
          <Node pos="r" depth="2" NCoef="0" IVar="-1" Cut="1.3965765380859375e+02" cType="1" res="-9.9000000000000000e+01" rms="0.0000000000000000e+00" purity="3.1701764464378357e-01" nType="-1"/>
        </Node>
      </Node>
    </BinaryTree>
    <BinaryTree type="DecisionTree" boostWeight="1.9038427803781935e-01" itree="23">
      <Node pos="s" depth="0" NCoef="0" IVar="3" Cut="1.7740802764892578e+01" cType="0" res="-9.9000000000000000e+01" rms="0.0000000000000000e+00" purity="4.8751881718635559e-01" nType="0">
        <Node pos="l" depth="1" NCoef="0" IVar="27" Cut="5.5839298248291016e+01" cType="0" res="-9.9000000000000000e+01" rms="0.0000000000000000e+00" purity="5.6747430562973022e-01" nType="0">
          <Node pos="l" depth="2" NCoef="0" IVar="10" Cut="1.7227545380592346e-01" cType="0" res="-9.9000000000000000e+01" rms="0.0000000000000000e+00" purity="7.4128603935241699e-01" nType="0">
            <Node pos="l" depth="3" NCoef="0" IVar="-1" Cut="0.0000000000000000e+00" cType="1" res="-9.9000000000000000e+01" rms="0.0000000000000000e+00" purity="8.1236910820007324e-01" nType="1"/>
            <Node pos="r" depth="3" NCoef="0" IVar="-1" Cut="0.0000000000000000e+00" cType="1" res="-9.9000000000000000e+01" rms="0.0000000000000000e+00" purity="4.6181154251098633e-01" nType="-1"/>
          </Node>
          <Node pos="r" depth="2" NCoef="0" IVar="24" Cut="1.7101820373535156e+02" cType="0" res="-9.9000000000000000e+01" rms="0.0000000000000000e+00" purity="5.1158219575881958e-01" nType="0">
            <Node pos="l" depth="3" NCoef="0" IVar="-1" Cut="0.0000000000000000e+00" cType="1" res="-9.9000000000000000e+01" rms="0.0000000000000000e+00" purity="8.3376395702362061e-01" nType="1"/>
            <Node pos="r" depth="3" NCoef="0" IVar="-1" Cut="0.0000000000000000e+00" cType="1" res="-9.9000000000000000e+01" rms="0.0000000000000000e+00" purity="4.8180377483367920e-01" nType="-1"/>
          </Node>
        </Node>
        <Node pos="r" depth="1" NCoef="0" IVar="18" Cut="7.8376436233520508e-01" cType="1" res="-9.9000000000000000e+01" rms="0.0000000000000000e+00" purity="4.2782363295555115e-01" nType="0">
          <Node pos="l" depth="2" NCoef="0" IVar="-1" Cut="0.0000000000000000e+00" cType="1" res="-9.9000000000000000e+01" rms="0.0000000000000000e+00" purity="6.9451677799224854e-01" nType="1"/>
          <Node pos="r" depth="2" NCoef="0" IVar="-1" Cut="6.7402801513671875e+01" cType="1" res="-9.9000000000000000e+01" rms="0.0000000000000000e+00" purity="4.1329658031463623e-01" nType="-1"/>
        </Node>
      </Node>
    </BinaryTree>
    <BinaryTree type="DecisionTree" boostWeight="1.8784180468646125e-01" itree="24">
      <Node pos="s" depth="0" NCoef="0" IVar="24" Cut="1.6336311340332031e+02" cType="0" res="-9.9000000000000000e+01" rms="0.0000000000000000e+00" purity="5.0165259838104248e-01" nType="0">
        <Node pos="l" depth="1" NCoef="0" IVar="9" Cut="8.3219566345214844e+01" cType="1" res="-9.9000000000000000e+01" rms="0.0000000000000000e+00" purity="6.7060101032257080e-01" nType="0">
          <Node pos="l" depth="2" NCoef="0" IVar="-1" Cut="1.4374977111816406e+01" cType="0" res="-9.9000000000000000e+01" rms="0.0000000000000000e+00" purity="7.7317798137664795e-01" nType="1"/>
          <Node pos="r" depth="2" NCoef="0" IVar="14" Cut="2.3640830516815186e+00" cType="1" res="-9.9000000000000000e+01" rms="0.0000000000000000e+00" purity="4.5488044619560242e-01" nType="0">
            <Node pos="l" depth="3" NCoef="0" IVar="-1" Cut="0.0000000000000000e+00" cType="1" res="-9.9000000000000000e+01" rms="0.0000000000000000e+00" purity="5.1575505733489990e-01" nType="1"/>
            <Node pos="r" depth="3" NCoef="0" IVar="-1" Cut="0.0000000000000000e+00" cType="1" res="-9.9000000000000000e+01" rms="0.0000000000000000e+00" purity="3.9353805780410767e-01" nType="-1"/>
          </Node>
        </Node>
        <Node pos="r" depth="1" NCoef="0" IVar="27" Cut="6.5972732543945312e+01" cType="0" res="-9.9000000000000000e+01" rms="0.0000000000000000e+00" purity="4.7659173607826233e-01" nType="0">
          <Node pos="l" depth="2" NCoef="0" IVar="9" Cut="9.4573043823242188e+01" cType="1" res="-9.9000000000000000e+01" rms="0.0000000000000000e+00" purity="6.1210072040557861e-01" nType="0">
            <Node pos="l" depth="3" NCoef="0" IVar="-1" Cut="0.0000000000000000e+00" cType="1" res="-9.9000000000000000e+01" rms="0.0000000000000000e+00" purity="6.5536326169967651e-01" nType="1"/>
            <Node pos="r" depth="3" NCoef="0" IVar="-1" Cut="0.0000000000000000e+00" cType="1" res="-9.9000000000000000e+01" rms="0.0000000000000000e+00" purity="3.9958512783050537e-01" nType="-1"/>
          </Node>
          <Node pos="r" depth="2" NCoef="0" IVar="-1" Cut="1.2791700363159180e+00" cType="1" res="-9.9000000000000000e+01" rms="0.0000000000000000e+00" purity="4.4173803925514221e-01" nType="-1"/>
        </Node>
      </Node>
    </BinaryTree>
    <BinaryTree type="DecisionTree" boostWeight="1.4879280419073571e-01" itree="25">
      <Node pos="s" depth="0" NCoef="0" IVar="3" Cut="2.3936210632324219e+01" cType="0" res="-9.9000000000000000e+01" rms="0.0000000000000000e+00" purity="5.1640582084655762e-01" nType="0">
        <Node pos="l" depth="1" NCoef="0" IVar="-1" Cut="6.1428176879882812e+01" cType="1" res="-9.9000000000000000e+01" rms="0.0000000000000000e+00" purity="6.5410101413726807e-01" nType="1"/>
        <Node pos="r" depth="1" NCoef="0" IVar="23" Cut="6.8298187255859375e+01" cType="1" res="-9.9000000000000000e+01" rms="0.0000000000000000e+00" purity="4.8027580976486206e-01" nType="0">
          <Node pos="l" depth="2" NCoef="0" IVar="30" Cut="1.2550953674316406e+02" cType="0" res="-9.9000000000000000e+01" rms="0.0000000000000000e+00" purity="5.0281053781509399e-01" nType="0">
            <Node pos="l" depth="3" NCoef="0" IVar="-1" Cut="0.0000000000000000e+00" cType="1" res="-9.9000000000000000e+01" rms="0.0000000000000000e+00" purity="7.5105428695678711e-01" nType="1"/>
            <Node pos="r" depth="3" NCoef="0" IVar="-1" Cut="0.0000000000000000e+00" cType="1" res="-9.9000000000000000e+01" rms="0.0000000000000000e+00" purity="4.8299443721771240e-01" nType="-1"/>
          </Node>
          <Node pos="r" depth="2" NCoef="0" IVar="-1" Cut="6.5393577575683594e+01" cType="1" res="-9.9000000000000000e+01" rms="0.0000000000000000e+00" purity="2.9610991477966309e-01" nType="-1"/>
        </Node>
      </Node>
    </BinaryTree>
    <BinaryTree type="DecisionTree" boostWeight="1.5049011694882458e-01" itree="26">
      <Node pos="s" depth="0" NCoef="0" IVar="30" Cut="1.3810586547851562e+02" cType="0" res="-9.9000000000000000e+01" rms="0.0000000000000000e+00" purity="5.2141332626342773e-01" nType="0">
        <Node pos="l" depth="1" NCoef="0" IVar="-1" Cut="1.5920635461807251e+00" cType="1" res="-9.9000000000000000e+01" rms="0.0000000000000000e+00" purity="7.1663838624954224e-01" nType="1"/>
        <Node pos="r" depth="1" NCoef="0" IVar="21" Cut="1.5309115648269653e+00" cType="0" res="-9.9000000000000000e+01" rms="0.0000000000000000e+00" purity="5.0672686100006104e-01" nType="0">
          <Node pos="l" depth="2" NCoef="0" IVar="32" Cut="1.0386309623718262e+01" cType="1" res="-9.9000000000000000e+01" rms="0.0000000000000000e+00" purity="5.4194706678390503e-01" nType="0">
            <Node pos="l" depth="3" NCoef="0" IVar="-1" Cut="0.0000000000000000e+00" cType="1" res="-9.9000000000000000e+01" rms="0.0000000000000000e+00" purity="6.0024356842041016e-01" nType="1"/>
            <Node pos="r" depth="3" NCoef="0" IVar="-1" Cut="0.0000000000000000e+00" cType="1" res="-9.9000000000000000e+01" rms="0.0000000000000000e+00" purity="4.8007699847221375e-01" nType="-1"/>
          </Node>
          <Node pos="r" depth="2" NCoef="0" IVar="-1" Cut="1.6361325073242188e+02" cType="1" res="-9.9000000000000000e+01" rms="0.0000000000000000e+00" purity="4.3006461858749390e-01" nType="-1"/>
        </Node>
      </Node>
    </BinaryTree>
    <BinaryTree type="DecisionTree" boostWeight="1.7600300803021071e-01" itree="27">
      <Node pos="s" depth="0" NCoef="0" IVar="3" Cut="1.8455389022827148e+01" cType="0" res="-9.9000000000000000e+01" rms="0.0000000000000000e+00" purity="5.5612200498580933e-01" nType="0">
        <Node pos="l" depth="1" NCoef="0" IVar="-1" Cut="4.0042419433593750e+01" cType="1" res="-9.9000000000000000e+01" rms="0.0000000000000000e+00" purity="6.2190550565719604e-01" nType="1"/>
        <Node pos="r" depth="1" NCoef="0" IVar="23" Cut="6.9881454467773438e+01" cType="1" res="-9.9000000000000000e+01" rms="0.0000000000000000e+00" purity="5.0948071479797363e-01" nType="0">
          <Node pos="l" depth="2" NCoef="0" IVar="28" Cut="4.2264923095703125e+01" cType="1" res="-9.9000000000000000e+01" rms="0.0000000000000000e+00" purity="5.3281027078628540e-01" nType="0">
            <Node pos="l" depth="3" NCoef="0" IVar="-1" Cut="0.0000000000000000e+00" cType="1" res="-9.9000000000000000e+01" rms="0.0000000000000000e+00" purity="6.3410598039627075e-01" nType="1"/>
            <Node pos="r" depth="3" NCoef="0" IVar="-1" Cut="0.0000000000000000e+00" cType="1" res="-9.9000000000000000e+01" rms="0.0000000000000000e+00" purity="4.9094501137733459e-01" nType="-1"/>
          </Node>
          <Node pos="r" depth="2" NCoef="0" IVar="-1" Cut="0.0000000000000000e+00" cType="1" res="-9.9000000000000000e+01" rms="0.0000000000000000e+00" purity="2.5235790014266968e-01" nType="-1"/>
        </Node>
      </Node>
    </BinaryTree>
    <BinaryTree type="DecisionTree" boostWeight="1.2446511488076077e-01" itree="28">
      <Node pos="s" depth="0" NCoef="0" IVar="30" Cut="1.5119807434082031e+02" cType="0" res="-9.9000000000000000e+01" rms="0.0000000000000000e+00" purity="5.2409654855728149e-01" nType="0">
        <Node pos="l" depth="1" NCoef="0" IVar="-1" Cut="1.2959384918212891e+00" cType="1" res="-9.9000000000000000e+01" rms="0.0000000000000000e+00" purity="7.4269723892211914e-01" nType="1"/>
        <Node pos="r" depth="1" NCoef="0" IVar="38" Cut="2.2031881332397461e+01" cType="1" res="-9.9000000000000000e+01" rms="0.0000000000000000e+00" purity="5.1281160116195679e-01" nType="0">
          <Node pos="l" depth="2" NCoef="0" IVar="-1" Cut="2.4706729125976562e+02" cType="0" res="-9.9000000000000000e+01" rms="0.0000000000000000e+00" purity="6.6240650415420532e-01" nType="1"/>
          <Node pos="r" depth="2" NCoef="0" IVar="30" Cut="4.6416114807128906e+01" cType="1" res="-9.9000000000000000e+01" rms="0.0000000000000000e+00" purity="4.9870762228965759e-01" nType="0">
            <Node pos="l" depth="3" NCoef="0" IVar="-1" Cut="0.0000000000000000e+00" cType="1" res="-9.9000000000000000e+01" rms="0.0000000000000000e+00" purity="5.5690997838973999e-01" nType="1"/>
            <Node pos="r" depth="3" NCoef="0" IVar="-1" Cut="0.0000000000000000e+00" cType="1" res="-9.9000000000000000e+01" rms="0.0000000000000000e+00" purity="4.6602064371109009e-01" nType="-1"/>
          </Node>
        </Node>
      </Node>
    </BinaryTree>
    <BinaryTree type="DecisionTree" boostWeight="6.5102174006579513e-02" itree="29">
      <Node pos="s" depth="0" NCoef="0" IVar="36" Cut="2.5940881729125977e+01" cType="1" res="-9.9000000000000000e+01" rms="0.0000000000000000e+00" purity="5.1281964778900146e-01" nType="0">
        <Node pos="l" depth="1" NCoef="0" IVar="-1" Cut="0.0000000000000000e+00" cType="1" res="-9.9000000000000000e+01" rms="0.0000000000000000e+00" purity="8.0981409549713135e-01" nType="1"/>
        <Node pos="r" depth="1" NCoef="0" IVar="10" Cut="2.2495911121368408e+00" cType="1" res="-9.9000000000000000e+01" rms="0.0000000000000000e+00" purity="5.0430554151535034e-01" nType="0">
          <Node pos="l" depth="2" NCoef="0" IVar="-1" Cut="1.4972914123535156e+02" cType="0" res="-9.9000000000000000e+01" rms="0.0000000000000000e+00" purity="5.1509070396423340e-01" nType="1"/>
          <Node pos="r" depth="2" NCoef="0" IVar="-1" Cut="0.0000000000000000e+00" cType="1" res="-9.9000000000000000e+01" rms="0.0000000000000000e+00" purity="2.6857432723045349e-01" nType="-1"/>
        </Node>
      </Node>
    </BinaryTree>
  </Weights>
</MethodSetup>
