<?xml version="1.0"?>
<MethodSetup Method="BDT::BDT">
  <GeneralInfo>
    <Info name="TMVA Release" value="4.2.1 [262657]"/>
    <Info name="ROOT Release" value="6.18/04 [397828]"/>
    <Info name="Creator" value="jbhyun"/>
    <Info name="Date" value="Thu Dec 10 17:10:28 2020"/>
    <Info name="Host" value="Linux SFT-ubuntu-1804-3 4.15.0-54-generic #58-Ubuntu SMP Mon Jun 24 10:55:24 UTC 2019 x86_64 x86_64 x86_64 GNU/Linux"/>
    <Info name="Dir" value="/home/jbhyun/Test/TMVA/tmva"/>
    <Info name="Training events" value="1000"/>
    <Info name="TrainingTime" value="8.26499462e-02"/>
    <Info name="AnalysisType" value="Regression"/>
  </GeneralInfo>
  <Options>
    <Option name="V" modified="Yes">False</Option>
    <Option name="VerbosityLevel" modified="No">Default</Option>
    <Option name="VarTransform" modified="No">None</Option>
    <Option name="H" modified="Yes">False</Option>
    <Option name="CreateMVAPdfs" modified="No">False</Option>
    <Option name="IgnoreNegWeightsInTraining" modified="No">False</Option>
    <Option name="NTrees" modified="Yes">100</Option>
    <Option name="MaxDepth" modified="No">50</Option>
    <Option name="MinNodeSize" modified="Yes">1.0%</Option>
    <Option name="nCuts" modified="Yes">20</Option>
    <Option name="BoostType" modified="Yes">AdaBoostR2</Option>
    <Option name="AdaBoostR2Loss" modified="No">quadratic</Option>
    <Option name="UseBaggedBoost" modified="No">False</Option>
    <Option name="Shrinkage" modified="No">1.000000e+00</Option>
    <Option name="AdaBoostBeta" modified="No">5.000000e-01</Option>
    <Option name="UseRandomisedTrees" modified="No">False</Option>
    <Option name="UseNvars" modified="No">2</Option>
    <Option name="UsePoissonNvars" modified="No">True</Option>
    <Option name="BaggedSampleFraction" modified="No">6.000000e-01</Option>
    <Option name="UseYesNoLeaf" modified="No">False</Option>
    <Option name="NegWeightTreatment" modified="No">inverseboostnegweights</Option>
    <Option name="Css" modified="No">1.000000e+00</Option>
    <Option name="Cts_sb" modified="No">1.000000e+00</Option>
    <Option name="Ctb_ss" modified="No">1.000000e+00</Option>
    <Option name="Cbb" modified="No">1.000000e+00</Option>
    <Option name="NodePurityLimit" modified="No">5.000000e-01</Option>
    <Option name="SeparationType" modified="Yes">regressionvariance</Option>
    <Option name="RegressionLossFunctionBDTG" modified="No">huber</Option>
    <Option name="HuberQuantile" modified="No">7.000000e-01</Option>
    <Option name="DoBoostMonitor" modified="No">False</Option>
    <Option name="UseFisherCuts" modified="No">False</Option>
    <Option name="MinLinCorrForFisher" modified="No">8.000000e-01</Option>
    <Option name="UseExclusiveVars" modified="No">False</Option>
    <Option name="DoPreselection" modified="No">False</Option>
    <Option name="SigToBkgFraction" modified="No">1.000000e+00</Option>
    <Option name="PruneMethod" modified="Yes">costcomplexity</Option>
    <Option name="PruneStrength" modified="Yes">3.000000e+01</Option>
    <Option name="PruningValFraction" modified="No">5.000000e-01</Option>
    <Option name="SkipNormalization" modified="No">False</Option>
    <Option name="nEventsMin" modified="No">0</Option>
    <Option name="UseBaggedGrad" modified="No">False</Option>
    <Option name="GradBaggingFraction" modified="No">6.000000e-01</Option>
    <Option name="UseNTrainEvents" modified="No">0</Option>
    <Option name="NNodesMax" modified="No">0</Option>
  </Options>
  <Variables NVar="2">
    <Variable VarIndex="0" Expression="var1" Label="var1" Title="Variable 1" Unit="units" Internal="var1" Type="F" Min="5.80459833e-03" Max="4.99746370e+00"/>
    <Variable VarIndex="1" Expression="var2" Label="var2" Title="Variable 2" Unit="units" Internal="var2" Type="F" Min="3.21418047e-03" Max="4.99706078e+00"/>
  </Variables>
  <Spectators NSpec="2">
    <Spectator SpecIndex="0" Expression="var1*2" Label="spec1" Title="Spectator 1" Unit="units" Internal="spec1" Type="F" Min="1.16091967e-02" Max="9.99492741e+00"/>
    <Spectator SpecIndex="1" Expression="var1*3" Label="spec2" Title="Spectator 2" Unit="units" Internal="spec2" Type="F" Min="1.74137950e-02" Max="1.49923916e+01"/>
  </Spectators>
  <Classes NClass="1">
    <Class Name="Regression" Index="0"/>
  </Classes>
  <Targets NTrgt="1">
    <Target TargetIndex="0" Expression="fvalue" Label="fvalue" Title="fvalue" Unit="" Internal="fvalue" Type="F" Min="2.09726381e+00" Max="3.91012146e+02"/>
  </Targets>
  <Transformations NTransformations="0"/>
  <MVAPdfs/>
  <Weights NTrees="100" AnalysisType="1">
    <BinaryTree type="DecisionTree" boostWeight="2.4440700707934324e+00" itree="0">
      <Node pos="s" depth="0" NCoef="0" IVar="1" Cut="3.3324451446533203e+00" cType="1" res="1.6593115234375000e+02" rms="8.4642692565917969e+01" purity="1.0000000000000000e+00" nType="0">
        <Node pos="l" depth="1" NCoef="0" IVar="0" Cut="3.5736660957336426e+00" cType="1" res="1.2469639587402344e+02" rms="5.9333576202392578e+01" purity="1.0000000000000000e+00" nType="0">
          <Node pos="l" depth="2" NCoef="0" IVar="1" Cut="1.9057205915451050e+00" cType="1" res="8.0643241882324219e+01" rms="3.8890110015869141e+01" purity="1.0000000000000000e+00" nType="0">
            <Node pos="l" depth="3" NCoef="0" IVar="0" Cut="2.5525379180908203e+00" cType="1" res="5.8160072326660156e+01" rms="2.9216070175170898e+01" purity="1.0000000000000000e+00" nType="0">
              <Node pos="l" depth="4" NCoef="0" IVar="0" Cut="1.7035837173461914e+00" cType="1" res="3.3975376129150391e+01" rms="1.5000862121582031e+01" purity="1.0000000000000000e+00" nType="0">
                <Node pos="l" depth="5" NCoef="0" IVar="1" Cut="1.3547449111938477e+00" cType="1" res="2.3287759780883789e+01" rms="1.1364426612854004e+01" purity="1.0000000000000000e+00" nType="0">
                  <Node pos="l" depth="6" NCoef="0" IVar="-1" Cut="1.2098495960235596e+00" cType="1" res="1.8138292312622070e+01" rms="6.9921035766601562e+00" purity="1.0000000000000000e+00" nType="1"/>
                  <Node pos="r" depth="6" NCoef="0" IVar="-1" Cut="0.0000000000000000e+00" cType="1" res="3.8820785522460938e+01" rms="7.0703277587890625e+00" purity="1.0000000000000000e+00" nType="-99"/>
                </Node>
                <Node pos="r" depth="5" NCoef="0" IVar="-1" Cut="8.9934402704238892e-01" cType="1" res="4.3734760284423828e+01" rms="1.0631297111511230e+01" purity="1.0000000000000000e+00" nType="1"/>
              </Node>
              <Node pos="r" depth="4" NCoef="0" IVar="0" Cut="3.1869561672210693e+00" cType="1" res="8.3054214477539062e+01" rms="1.6697141647338867e+01" purity="1.0000000000000000e+00" nType="0">
                <Node pos="l" depth="5" NCoef="0" IVar="1" Cut="1.1427329778671265e+00" cType="1" res="7.2186668395996094e+01" rms="1.1275259017944336e+01" purity="1.0000000000000000e+00" nType="0">
                  <Node pos="l" depth="6" NCoef="0" IVar="-1" Cut="2.9214103221893311e+00" cType="1" res="6.5236236572265625e+01" rms="7.1579728126525879e+00" purity="1.0000000000000000e+00" nType="1"/>
                  <Node pos="r" depth="6" NCoef="0" IVar="-1" Cut="2.8773982524871826e+00" cType="1" res="8.1921722412109375e+01" rms="8.4260854721069336e+00" purity="1.0000000000000000e+00" nType="1"/>
                </Node>
                <Node pos="r" depth="5" NCoef="0" IVar="-1" Cut="1.3515516519546509e+00" cType="1" res="9.8055801391601562e+01" rms="1.0003627777099609e+01" purity="1.0000000000000000e+00" nType="1"/>
              </Node>
            </Node>
            <Node pos="r" depth="3" NCoef="0" IVar="0" Cut="2.5542902946472168e+00" cType="1" res="1.1020840454101562e+02" rms="2.8983110427856445e+01" purity="1.0000000000000000e+00" nType="0">
              <Node pos="l" depth="4" NCoef="0" IVar="1" Cut="2.7866539955139160e+00" cType="1" res="9.0757499694824219e+01" rms="2.2689748764038086e+01" purity="1.0000000000000000e+00" nType="0">
                <Node pos="l" depth="5" NCoef="0" IVar="0" Cut="2.0719604492187500e+00" cType="1" res="7.8603393554687500e+01" rms="1.5981272697448730e+01" purity="1.0000000000000000e+00" nType="0">
                  <Node pos="l" depth="6" NCoef="0" IVar="-1" Cut="2.2949070930480957e+00" cType="1" res="6.4797111511230469e+01" rms="9.9209613800048828e+00" purity="1.0000000000000000e+00" nType="1"/>
                  <Node pos="r" depth="6" NCoef="0" IVar="-1" Cut="2.3039979934692383e+00" cType="1" res="8.9488960266113281e+01" rms="1.0506365776062012e+01" purity="1.0000000000000000e+00" nType="1"/>
                </Node>
                <Node pos="r" depth="5" NCoef="0" IVar="0" Cut="1.8120442628860474e+00" cType="1" res="1.1134669494628906e+02" rms="1.6737176895141602e+01" purity="1.0000000000000000e+00" nType="0">
                  <Node pos="l" depth="6" NCoef="0" IVar="-1" Cut="0.0000000000000000e+00" cType="1" res="9.6807174682617188e+01" rms="9.5872287750244141e+00" purity="1.0000000000000000e+00" nType="-99"/>
                  <Node pos="r" depth="6" NCoef="0" IVar="-1" Cut="0.0000000000000000e+00" cType="1" res="1.2384320831298828e+02" rms="1.0200379371643066e+01" purity="1.0000000000000000e+00" nType="-99"/>
                </Node>
              </Node>
              <Node pos="r" depth="4" NCoef="0" IVar="1" Cut="2.6315112113952637e+00" cType="1" res="1.2980856323242188e+02" rms="2.0057538986206055e+01" purity="1.0000000000000000e+00" nType="0">
                <Node pos="l" depth="5" NCoef="0" IVar="0" Cut="3.2606620788574219e+00" cType="1" res="1.1582434844970703e+02" rms="1.3413928031921387e+01" purity="1.0000000000000000e+00" nType="0">
                  <Node pos="l" depth="6" NCoef="0" IVar="-1" Cut="2.8066296577453613e+00" cType="1" res="1.0830592346191406e+02" rms="8.5950584411621094e+00" purity="1.0000000000000000e+00" nType="1"/>
                  <Node pos="r" depth="6" NCoef="0" IVar="-1" Cut="0.0000000000000000e+00" cType="1" res="1.2863630676269531e+02" rms="1.0009634971618652e+01" purity="1.0000000000000000e+00" nType="-99"/>
                </Node>
                <Node pos="r" depth="5" NCoef="0" IVar="-1" Cut="3.0106241703033447e+00" cType="1" res="1.4503700256347656e+02" rms="1.4127925872802734e+01" purity="1.0000000000000000e+00" nType="1"/>
              </Node>
            </Node>
          </Node>
          <Node pos="r" depth="2" NCoef="0" IVar="1" Cut="2.0571146011352539e+00" cType="1" res="1.7061616516113281e+02" rms="3.8497459411621094e+01" purity="1.0000000000000000e+00" nType="0">
            <Node pos="l" depth="3" NCoef="0" IVar="0" Cut="4.3124504089355469e+00" cType="1" res="1.4933634948730469e+02" rms="2.5745962142944336e+01" purity="1.0000000000000000e+00" nType="0">
              <Node pos="l" depth="4" NCoef="0" IVar="1" Cut="8.8270193338394165e-01" cType="1" res="1.2486669158935547e+02" rms="1.6315149307250977e+01" purity="1.0000000000000000e+00" nType="0">
                <Node pos="l" depth="5" NCoef="0" IVar="0" Cut="3.9493846893310547e+00" cType="1" res="1.1212863159179688e+02" rms="1.3026116371154785e+01" purity="1.0000000000000000e+00" nType="0">
                  <Node pos="l" depth="6" NCoef="0" IVar="-1" Cut="0.0000000000000000e+00" cType="1" res="1.0133124542236328e+02" rms="6.3450059890747070e+00" purity="1.0000000000000000e+00" nType="-99"/>
                  <Node pos="r" depth="6" NCoef="0" IVar="-1" Cut="0.0000000000000000e+00" cType="1" res="1.2381214141845703e+02" rms="6.8604612350463867e+00" purity="1.0000000000000000e+00" nType="-99"/>
                </Node>
                <Node pos="r" depth="5" NCoef="0" IVar="0" Cut="4.0566043853759766e+00" cType="1" res="1.3327098083496094e+02" rms="1.2335688591003418e+01" purity="1.0000000000000000e+00" nType="0">
                  <Node pos="l" depth="6" NCoef="0" IVar="-1" Cut="1.4986122846603394e+00" cType="1" res="1.2786531066894531e+02" rms="9.3576202392578125e+00" purity="1.0000000000000000e+00" nType="1"/>
                  <Node pos="r" depth="6" NCoef="0" IVar="-1" Cut="0.0000000000000000e+00" cType="1" res="1.4475045776367188e+02" rms="9.7739276885986328e+00" purity="1.0000000000000000e+00" nType="-99"/>
                </Node>
              </Node>
              <Node pos="r" depth="4" NCoef="0" IVar="0" Cut="4.6952824592590332e+00" cType="1" res="1.6657234191894531e+02" rms="1.4947363853454590e+01" purity="1.0000000000000000e+00" nType="0">
                <Node pos="l" depth="5" NCoef="0" IVar="1" Cut="1.0284137725830078e+00" cType="1" res="1.5694839477539062e+02" rms="1.1584145545959473e+01" purity="1.0000000000000000e+00" nType="0">
                  <Node pos="l" depth="6" NCoef="0" IVar="-1" Cut="0.0000000000000000e+00" cType="1" res="1.4877748107910156e+02" rms="7.1669130325317383e+00" purity="1.0000000000000000e+00" nType="-99"/>
                  <Node pos="r" depth="6" NCoef="0" IVar="-1" Cut="0.0000000000000000e+00" cType="1" res="1.6665962219238281e+02" rms="7.6796312332153320e+00" purity="1.0000000000000000e+00" nType="-99"/>
                </Node>
                <Node pos="r" depth="5" NCoef="0" IVar="1" Cut="1.1664533615112305e+00" cType="1" res="1.7796435546875000e+02" rms="9.4675188064575195e+00" purity="1.0000000000000000e+00" nType="0">
                  <Node pos="l" depth="6" NCoef="0" IVar="-1" Cut="0.0000000000000000e+00" cType="1" res="1.7189428710937500e+02" rms="4.5217447280883789e+00" purity="1.0000000000000000e+00" nType="-99"/>
                  <Node pos="r" depth="6" NCoef="0" IVar="-1" Cut="0.0000000000000000e+00" cType="1" res="1.8661694335937500e+02" rms="7.8018250465393066e+00" purity="1.0000000000000000e+00" nType="-99"/>
                </Node>
              </Node>
            </Node>
            <Node pos="r" depth="3" NCoef="0" IVar="0" Cut="4.5931806564331055e+00" cType="1" res="2.0422808837890625e+02" rms="3.0511976242065430e+01" purity="1.0000000000000000e+00" nType="0">
              <Node pos="l" depth="4" NCoef="0" IVar="0" Cut="4.0573420524597168e+00" cType="1" res="1.8514125061035156e+02" rms="2.2207620620727539e+01" purity="1.0000000000000000e+00" nType="0">
                <Node pos="l" depth="5" NCoef="0" IVar="1" Cut="2.5824472904205322e+00" cType="1" res="1.6832234191894531e+02" rms="1.7427560806274414e+01" purity="1.0000000000000000e+00" nType="0">
                  <Node pos="l" depth="6" NCoef="0" IVar="-1" Cut="0.0000000000000000e+00" cType="1" res="1.5353167724609375e+02" rms="7.3993158340454102e+00" purity="1.0000000000000000e+00" nType="-99"/>
                  <Node pos="r" depth="6" NCoef="0" IVar="-1" Cut="0.0000000000000000e+00" cType="1" res="1.8325025939941406e+02" rms="1.0552900314331055e+01" purity="1.0000000000000000e+00" nType="-99"/>
                </Node>
                <Node pos="r" depth="5" NCoef="0" IVar="1" Cut="2.7500574588775635e+00" cType="1" res="1.9884809875488281e+02" rms="1.5138321876525879e+01" purity="1.0000000000000000e+00" nType="0">
                  <Node pos="l" depth="6" NCoef="0" IVar="-1" Cut="0.0000000000000000e+00" cType="1" res="1.8823410034179688e+02" rms="1.0032564163208008e+01" purity="1.0000000000000000e+00" nType="-99"/>
                  <Node pos="r" depth="6" NCoef="0" IVar="-1" Cut="0.0000000000000000e+00" cType="1" res="2.1165713500976562e+02" rms="9.1780586242675781e+00" purity="1.0000000000000000e+00" nType="-99"/>
                </Node>
              </Node>
              <Node pos="r" depth="4" NCoef="0" IVar="1" Cut="2.5530586242675781e+00" cType="1" res="2.2915188598632812e+02" rms="2.0143360137939453e+01" purity="1.0000000000000000e+00" nType="0">
                <Node pos="l" depth="5" NCoef="0" IVar="-1" Cut="0.0000000000000000e+00" cType="1" res="2.1082707214355469e+02" rms="9.1185178756713867e+00" purity="1.0000000000000000e+00" nType="-99"/>
                <Node pos="r" depth="5" NCoef="0" IVar="-1" Cut="0.0000000000000000e+00" cType="1" res="2.4529295349121094e+02" rms="1.1558599472045898e+01" purity="1.0000000000000000e+00" nType="-99"/>
              </Node>
            </Node>
          </Node>
        </Node>
        <Node pos="r" depth="1" NCoef="0" IVar="0" Cut="3.3318257331848145e+00" cType="1" res="2.5156820678710938e+02" rms="6.2186767578125000e+01" purity="1.0000000000000000e+00" nType="0">
          <Node pos="l" depth="2" NCoef="0" IVar="1" Cut="4.2133355140686035e+00" cType="1" res="2.0000045776367188e+02" rms="4.4787414550781250e+01" purity="1.0000000000000000e+00" nType="0">
            <Node pos="l" depth="3" NCoef="0" IVar="0" Cut="2.1295034885406494e+00" cType="1" res="1.6522366333007812e+02" rms="2.6266593933105469e+01" purity="1.0000000000000000e+00" nType="0">
              <Node pos="l" depth="4" NCoef="0" IVar="1" Cut="3.7156255245208740e+00" cType="1" res="1.4630656433105469e+02" rms="1.9546230316162109e+01" purity="1.0000000000000000e+00" nType="0">
                <Node pos="l" depth="5" NCoef="0" IVar="-1" Cut="0.0000000000000000e+00" cType="1" res="1.2589225006103516e+02" rms="9.0975685119628906e+00" purity="1.0000000000000000e+00" nType="-99"/>
                <Node pos="r" depth="5" NCoef="0" IVar="-1" Cut="0.0000000000000000e+00" cType="1" res="1.5903762817382812e+02" rms="1.2113058090209961e+01" purity="1.0000000000000000e+00" nType="-99"/>
              </Node>
              <Node pos="r" depth="4" NCoef="0" IVar="1" Cut="3.5974543094635010e+00" cType="1" res="1.8336328125000000e+02" rms="1.7690788269042969e+01" purity="1.0000000000000000e+00" nType="0">
                <Node pos="l" depth="5" NCoef="0" IVar="-1" Cut="0.0000000000000000e+00" cType="1" res="1.6503440856933594e+02" rms="1.1441002845764160e+01" purity="1.0000000000000000e+00" nType="-99"/>
                <Node pos="r" depth="5" NCoef="0" IVar="-1" Cut="2.6423938274383545e+00" cType="1" res="1.9174029541015625e+02" rms="1.3132429122924805e+01" purity="1.0000000000000000e+00" nType="1"/>
              </Node>
            </Node>
            <Node pos="r" depth="3" NCoef="0" IVar="0" Cut="2.1828579902648926e+00" cType="1" res="2.3449377441406250e+02" rms="3.0361286163330078e+01" purity="1.0000000000000000e+00" nType="0">
              <Node pos="l" depth="4" NCoef="0" IVar="1" Cut="4.5479025840759277e+00" cType="1" res="2.0828407287597656e+02" rms="2.0027317047119141e+01" purity="1.0000000000000000e+00" nType="0">
                <Node pos="l" depth="5" NCoef="0" IVar="-1" Cut="0.0000000000000000e+00" cType="1" res="1.9002877807617188e+02" rms="1.0490165710449219e+01" purity="1.0000000000000000e+00" nType="-99"/>
                <Node pos="r" depth="5" NCoef="0" IVar="-1" Cut="0.0000000000000000e+00" cType="1" res="2.2294987487792969e+02" rms="1.2332910537719727e+01" purity="1.0000000000000000e+00" nType="-99"/>
              </Node>
              <Node pos="r" depth="4" NCoef="0" IVar="1" Cut="4.6646013259887695e+00" cType="1" res="2.5043127441406250e+02" rms="2.3805900573730469e+01" purity="1.0000000000000000e+00" nType="0">
                <Node pos="l" depth="5" NCoef="0" IVar="-1" Cut="2.5993378162384033e+00" cType="1" res="2.3378549194335938e+02" rms="1.4973519325256348e+01" purity="1.0000000000000000e+00" nType="1"/>
                <Node pos="r" depth="5" NCoef="0" IVar="-1" Cut="0.0000000000000000e+00" cType="1" res="2.7131887817382812e+02" rms="1.4578579902648926e+01" purity="1.0000000000000000e+00" nType="-99"/>
              </Node>
            </Node>
          </Node>
          <Node pos="r" depth="2" NCoef="0" IVar="1" Cut="4.2103209495544434e+00" cType="1" res="2.8639645385742188e+02" rms="4.5991977691650391e+01" purity="1.0000000000000000e+00" nType="0">
            <Node pos="l" depth="3" NCoef="0" IVar="0" Cut="4.0389394760131836e+00" cType="1" res="2.5148443603515625e+02" rms="2.8283479690551758e+01" purity="1.0000000000000000e+00" nType="0">
              <Node pos="l" depth="4" NCoef="0" IVar="1" Cut="3.9085638523101807e+00" cType="1" res="2.2845655822753906e+02" rms="1.8394733428955078e+01" purity="1.0000000000000000e+00" nType="0">
                <Node pos="l" depth="5" NCoef="0" IVar="-1" Cut="3.7355206012725830e+00" cType="1" res="2.1943821716308594e+02" rms="1.2255871772766113e+01" purity="1.0000000000000000e+00" nType="1"/>
                <Node pos="r" depth="5" NCoef="0" IVar="-1" Cut="0.0000000000000000e+00" cType="1" res="2.4763752746582031e+02" rms="1.4059521675109863e+01" purity="1.0000000000000000e+00" nType="-99"/>
              </Node>
              <Node pos="r" depth="4" NCoef="0" IVar="0" Cut="4.5825648307800293e+00" cType="1" res="2.7104028320312500e+02" rms="1.8952232360839844e+01" purity="1.0000000000000000e+00" nType="0">
                <Node pos="l" depth="5" NCoef="0" IVar="-1" Cut="3.7687919139862061e+00" cType="1" res="2.6201983642578125e+02" rms="1.3811358451843262e+01" purity="1.0000000000000000e+00" nType="1"/>
                <Node pos="r" depth="5" NCoef="0" IVar="-1" Cut="0.0000000000000000e+00" cType="1" res="2.8736502075195312e+02" rms="1.5819480895996094e+01" purity="1.0000000000000000e+00" nType="-99"/>
              </Node>
            </Node>
            <Node pos="r" depth="3" NCoef="0" IVar="0" Cut="4.0626296997070312e+00" cType="1" res="3.2048272705078125e+02" rms="3.2366085052490234e+01" purity="1.0000000000000000e+00" nType="0">
              <Node pos="l" depth="4" NCoef="0" IVar="1" Cut="4.6608567237854004e+00" cType="1" res="2.9024429321289062e+02" rms="1.9699188232421875e+01" purity="1.0000000000000000e+00" nType="0">
                <Node pos="l" depth="5" NCoef="0" IVar="-1" Cut="0.0000000000000000e+00" cType="1" res="2.7782617187500000e+02" rms="1.0795467376708984e+01" purity="1.0000000000000000e+00" nType="-99"/>
                <Node pos="r" depth="5" NCoef="0" IVar="-1" Cut="0.0000000000000000e+00" cType="1" res="3.0987420654296875e+02" rms="1.3716999053955078e+01" purity="1.0000000000000000e+00" nType="-99"/>
              </Node>
              <Node pos="r" depth="4" NCoef="0" IVar="1" Cut="4.7670898437500000e+00" cType="1" res="3.4148117065429688e+02" rms="2.0727970123291016e+01" purity="1.0000000000000000e+00" nType="0">
                <Node pos="l" depth="5" NCoef="0" IVar="0" Cut="4.5742478370666504e+00" cType="1" res="3.3278594970703125e+02" rms="1.6672161102294922e+01" purity="1.0000000000000000e+00" nType="0">
                  <Node pos="l" depth="6" NCoef="0" IVar="-1" Cut="0.0000000000000000e+00" cType="1" res="3.1992691040039062e+02" rms="1.3162408828735352e+01" purity="1.0000000000000000e+00" nType="-99"/>
                  <Node pos="r" depth="6" NCoef="0" IVar="-1" Cut="0.0000000000000000e+00" cType="1" res="3.4331149291992188e+02" rms="1.0841377258300781e+01" purity="1.0000000000000000e+00" nType="-99"/>
                </Node>
                <Node pos="r" depth="5" NCoef="0" IVar="-1" Cut="0.0000000000000000e+00" cType="1" res="3.5715246582031250e+02" rms="1.7921461105346680e+01" purity="1.0000000000000000e+00" nType="-99"/>
              </Node>
            </Node>
          </Node>
        </Node>
      </Node>
    </BinaryTree>
    <BinaryTree type="DecisionTree" boostWeight="2.2626711348835271e+00" itree="1">
      <Node pos="s" depth="0" NCoef="0" IVar="1" Cut="3.3324451446533203e+00" cType="1" res="1.8367703247070312e+02" rms="8.8250083923339844e+01" purity="1.0000000000000000e+00" nType="0">
        <Node pos="l" depth="1" NCoef="0" IVar="0" Cut="3.5736660957336426e+00" cType="1" res="1.3111721801757812e+02" rms="6.0296775817871094e+01" purity="1.0000000000000000e+00" nType="0">
          <Node pos="l" depth="2" NCoef="0" IVar="1" Cut="2.5377421379089355e+00" cType="1" res="8.5834358215332031e+01" rms="4.0550811767578125e+01" purity="1.0000000000000000e+00" nType="0">
            <Node pos="l" depth="3" NCoef="0" IVar="0" Cut="2.3833136558532715e+00" cType="1" res="6.7983947753906250e+01" rms="3.1218116760253906e+01" purity="1.0000000000000000e+00" nType="0">
              <Node pos="l" depth="4" NCoef="0" IVar="1" Cut="1.6801747083663940e+00" cType="1" res="4.1045795440673828e+01" rms="2.1511774063110352e+01" purity="1.0000000000000000e+00" nType="0">
                <Node pos="l" depth="5" NCoef="0" IVar="0" Cut="1.7015575170516968e+00" cType="1" res="2.8459012985229492e+01" rms="1.2394490242004395e+01" purity="1.0000000000000000e+00" nType="0">
                  <Node pos="l" depth="6" NCoef="0" IVar="-1" Cut="9.6345055103302002e-01" cType="1" res="2.0967245101928711e+01" rms="9.4716587066650391e+00" purity="1.0000000000000000e+00" nType="1"/>
                  <Node pos="r" depth="6" NCoef="0" IVar="-1" Cut="7.8712749481201172e-01" cType="1" res="3.8421234130859375e+01" rms="8.0454359054565430e+00" purity="1.0000000000000000e+00" nType="1"/>
                </Node>
                <Node pos="r" depth="5" NCoef="0" IVar="0" Cut="1.9323505163192749e+00" cType="1" res="6.3521251678466797e+01" rms="1.5057116508483887e+01" purity="1.0000000000000000e+00" nType="0">
                  <Node pos="l" depth="6" NCoef="0" IVar="-1" Cut="0.0000000000000000e+00" cType="1" res="5.4134788513183594e+01" rms="1.0468980789184570e+01" purity="1.0000000000000000e+00" nType="-99"/>
                  <Node pos="r" depth="6" NCoef="0" IVar="-1" Cut="0.0000000000000000e+00" cType="1" res="7.7015884399414062e+01" rms="9.2908887863159180e+00" purity="1.0000000000000000e+00" nType="-99"/>
                </Node>
              </Node>
              <Node pos="r" depth="4" NCoef="0" IVar="1" Cut="1.3147662878036499e+00" cType="1" res="8.7069824218750000e+01" rms="2.1419292449951172e+01" purity="1.0000000000000000e+00" nType="0">
                <Node pos="l" depth="5" NCoef="0" IVar="0" Cut="2.9890675544738770e+00" cType="1" res="7.0316940307617188e+01" rms="1.5323862075805664e+01" purity="1.0000000000000000e+00" nType="0">
                  <Node pos="l" depth="6" NCoef="0" IVar="-1" Cut="2.6217973232269287e+00" cType="1" res="5.8919673919677734e+01" rms="8.8096599578857422e+00" purity="1.0000000000000000e+00" nType="1"/>
                  <Node pos="r" depth="6" NCoef="0" IVar="-1" Cut="3.3782982826232910e+00" cType="1" res="8.3862922668457031e+01" rms="9.1536560058593750e+00" purity="1.0000000000000000e+00" nType="1"/>
                </Node>
                <Node pos="r" depth="5" NCoef="0" IVar="0" Cut="3.0622923374176025e+00" cType="1" res="1.0076818847656250e+02" rms="1.4992797851562500e+01" purity="1.0000000000000000e+00" nType="0">
                  <Node pos="l" depth="6" NCoef="0" IVar="-1" Cut="2.1462466716766357e+00" cType="1" res="9.1845329284667969e+01" rms="1.1555646896362305e+01" purity="1.0000000000000000e+00" nType="1"/>
                  <Node pos="r" depth="6" NCoef="0" IVar="-1" Cut="2.0206689834594727e+00" cType="1" res="1.1124188995361328e+02" rms="1.1346414566040039e+01" purity="1.0000000000000000e+00" nType="1"/>
                </Node>
              </Node>
            </Node>
            <Node pos="r" depth="3" NCoef="0" IVar="0" Cut="2.2167296409606934e+00" cType="1" res="1.2859896850585938e+02" rms="2.5628839492797852e+01" purity="1.0000000000000000e+00" nType="0">
              <Node pos="l" depth="4" NCoef="0" IVar="-1" Cut="2.9702091217041016e+00" cType="1" res="9.7783004760742188e+01" rms="1.6294757843017578e+01" purity="1.0000000000000000e+00" nType="1"/>
              <Node pos="r" depth="4" NCoef="0" IVar="0" Cut="3.0647187232971191e+00" cType="1" res="1.3887867736816406e+02" rms="1.9102970123291016e+01" purity="1.0000000000000000e+00" nType="0">
                <Node pos="l" depth="5" NCoef="0" IVar="1" Cut="2.9275915622711182e+00" cType="1" res="1.2934658813476562e+02" rms="1.3715638160705566e+01" purity="1.0000000000000000e+00" nType="0">
                  <Node pos="l" depth="6" NCoef="0" IVar="-1" Cut="0.0000000000000000e+00" cType="1" res="1.1842918395996094e+02" rms="8.5095949172973633e+00" purity="1.0000000000000000e+00" nType="-99"/>
                  <Node pos="r" depth="6" NCoef="0" IVar="-1" Cut="0.0000000000000000e+00" cType="1" res="1.4074983215332031e+02" rms="7.3787207603454590e+00" purity="1.0000000000000000e+00" nType="-99"/>
                </Node>
                <Node pos="r" depth="5" NCoef="0" IVar="-1" Cut="0.0000000000000000e+00" cType="1" res="1.5670385742187500e+02" rms="1.4418861389160156e+01" purity="1.0000000000000000e+00" nType="-99"/>
              </Node>
            </Node>
          </Node>
          <Node pos="r" depth="2" NCoef="0" IVar="1" Cut="2.0571146011352539e+00" cType="1" res="1.7453355407714844e+02" rms="4.1157741546630859e+01" purity="1.0000000000000000e+00" nType="0">
            <Node pos="l" depth="3" NCoef="0" IVar="0" Cut="4.2458257675170898e+00" cType="1" res="1.4909301757812500e+02" rms="2.6270706176757812e+01" purity="1.0000000000000000e+00" nType="0">
              <Node pos="l" depth="4" NCoef="0" IVar="1" Cut="8.9896446466445923e-01" cType="1" res="1.2213096618652344e+02" rms="1.5404706001281738e+01" purity="1.0000000000000000e+00" nType="0">
                <Node pos="l" depth="5" NCoef="0" IVar="-1" Cut="3.8587539196014404e+00" cType="1" res="1.0994926452636719e+02" rms="1.1920206069946289e+01" purity="1.0000000000000000e+00" nType="1"/>
                <Node pos="r" depth="5" NCoef="0" IVar="-1" Cut="3.8615069389343262e+00" cType="1" res="1.3049374389648438e+02" rms="1.1439425468444824e+01" purity="1.0000000000000000e+00" nType="1"/>
              </Node>
              <Node pos="r" depth="4" NCoef="0" IVar="0" Cut="4.7089543342590332e+00" cType="1" res="1.6463673400878906e+02" rms="1.7044630050659180e+01" purity="1.0000000000000000e+00" nType="0">
                <Node pos="l" depth="5" NCoef="0" IVar="1" Cut="1.0598186254501343e+00" cType="1" res="1.5520802307128906e+02" rms="1.2907822608947754e+01" purity="1.0000000000000000e+00" nType="0">
                  <Node pos="l" depth="6" NCoef="0" IVar="-1" Cut="4.4530916213989258e+00" cType="1" res="1.4609886169433594e+02" rms="8.8909006118774414e+00" purity="1.0000000000000000e+00" nType="1"/>
                  <Node pos="r" depth="6" NCoef="0" IVar="-1" Cut="0.0000000000000000e+00" cType="1" res="1.6517904663085938e+02" rms="8.4977378845214844e+00" purity="1.0000000000000000e+00" nType="-99"/>
                </Node>
                <Node pos="r" depth="5" NCoef="0" IVar="-1" Cut="1.1664533615112305e+00" cType="1" res="1.7948020935058594e+02" rms="1.1193808555603027e+01" purity="1.0000000000000000e+00" nType="1"/>
              </Node>
            </Node>
            <Node pos="r" depth="3" NCoef="0" IVar="0" Cut="4.3910393714904785e+00" cType="1" res="2.0708441162109375e+02" rms="3.3025024414062500e+01" purity="1.0000000000000000e+00" nType="0">
              <Node pos="l" depth="4" NCoef="0" IVar="1" Cut="2.8119647502899170e+00" cType="1" res="1.7796334838867188e+02" rms="2.0114948272705078e+01" purity="1.0000000000000000e+00" nType="0">
                <Node pos="l" depth="5" NCoef="0" IVar="-1" Cut="4.0095877647399902e+00" cType="1" res="1.6598168945312500e+02" rms="1.3781407356262207e+01" purity="1.0000000000000000e+00" nType="1"/>
                <Node pos="r" depth="5" NCoef="0" IVar="-1" Cut="0.0000000000000000e+00" cType="1" res="1.9838671875000000e+02" rms="1.0427448272705078e+01" purity="1.0000000000000000e+00" nType="-99"/>
              </Node>
              <Node pos="r" depth="4" NCoef="0" IVar="1" Cut="2.6121351718902588e+00" cType="1" res="2.2760194396972656e+02" rms="2.3570049285888672e+01" purity="1.0000000000000000e+00" nType="0">
                <Node pos="l" depth="5" NCoef="0" IVar="-1" Cut="4.7137165069580078e+00" cType="1" res="2.0701443481445312e+02" rms="1.1284348487854004e+01" purity="1.0000000000000000e+00" nType="1"/>
                <Node pos="r" depth="5" NCoef="0" IVar="-1" Cut="0.0000000000000000e+00" cType="1" res="2.4506054687500000e+02" rms="1.5951375007629395e+01" purity="1.0000000000000000e+00" nType="-99"/>
              </Node>
            </Node>
          </Node>
        </Node>
        <Node pos="r" depth="1" NCoef="0" IVar="0" Cut="3.8069715499877930e+00" cType="1" res="2.5873065185546875e+02" rms="6.4340339660644531e+01" purity="1.0000000000000000e+00" nType="0">
          <Node pos="l" depth="2" NCoef="0" IVar="1" Cut="4.3700804710388184e+00" cType="1" res="2.1639073181152344e+02" rms="4.7415512084960938e+01" purity="1.0000000000000000e+00" nType="0">
            <Node pos="l" depth="3" NCoef="0" IVar="0" Cut="2.7066056728363037e+00" cType="1" res="1.9075598144531250e+02" rms="3.7333766937255859e+01" purity="1.0000000000000000e+00" nType="0">
              <Node pos="l" depth="4" NCoef="0" IVar="1" Cut="3.8821768760681152e+00" cType="1" res="1.6278465270996094e+02" rms="2.6152187347412109e+01" purity="1.0000000000000000e+00" nType="0">
                <Node pos="l" depth="5" NCoef="0" IVar="0" Cut="1.2709950208663940e+00" cType="1" res="1.4294396972656250e+02" rms="1.8107393264770508e+01" purity="1.0000000000000000e+00" nType="0">
                  <Node pos="l" depth="6" NCoef="0" IVar="-1" Cut="0.0000000000000000e+00" cType="1" res="1.2360021972656250e+02" rms="9.2340421676635742e+00" purity="1.0000000000000000e+00" nType="-99"/>
                  <Node pos="r" depth="6" NCoef="0" IVar="-1" Cut="2.0966596603393555e+00" cType="1" res="1.5181654357910156e+02" rms="1.3740689277648926e+01" purity="1.0000000000000000e+00" nType="1"/>
                </Node>
                <Node pos="r" depth="5" NCoef="0" IVar="0" Cut="2.1680736541748047e+00" cType="1" res="1.8268186950683594e+02" rms="1.5822058677673340e+01" purity="1.0000000000000000e+00" nType="0">
                  <Node pos="l" depth="6" NCoef="0" IVar="-1" Cut="0.0000000000000000e+00" cType="1" res="1.7307723999023438e+02" rms="1.1143908500671387e+01" purity="1.0000000000000000e+00" nType="-99"/>
                  <Node pos="r" depth="6" NCoef="0" IVar="-1" Cut="0.0000000000000000e+00" cType="1" res="1.9670387268066406e+02" rms="1.0159480094909668e+01" purity="1.0000000000000000e+00" nType="-99"/>
                </Node>
              </Node>
              <Node pos="r" depth="4" NCoef="0" IVar="1" Cut="3.7898552417755127e+00" cType="1" res="2.1786126708984375e+02" rms="2.4265975952148438e+01" purity="1.0000000000000000e+00" nType="0">
                <Node pos="l" depth="5" NCoef="0" IVar="-1" Cut="0.0000000000000000e+00" cType="1" res="1.9438058471679688e+02" rms="1.5889603614807129e+01" purity="1.0000000000000000e+00" nType="-99"/>
                <Node pos="r" depth="5" NCoef="0" IVar="0" Cut="3.4314849376678467e+00" cType="1" res="2.3091706848144531e+02" rms="1.7287204742431641e+01" purity="1.0000000000000000e+00" nType="0">
                  <Node pos="l" depth="6" NCoef="0" IVar="-1" Cut="0.0000000000000000e+00" cType="1" res="2.1961141967773438e+02" rms="1.2499425888061523e+01" purity="1.0000000000000000e+00" nType="-99"/>
                  <Node pos="r" depth="6" NCoef="0" IVar="-1" Cut="0.0000000000000000e+00" cType="1" res="2.4249497985839844e+02" rms="1.3414536476135254e+01" purity="1.0000000000000000e+00" nType="-99"/>
                </Node>
              </Node>
            </Node>
            <Node pos="r" depth="3" NCoef="0" IVar="0" Cut="2.8941493034362793e+00" cType="1" res="2.5464581298828125e+02" rms="3.2850914001464844e+01" purity="1.0000000000000000e+00" nType="0">
              <Node pos="l" depth="4" NCoef="0" IVar="0" Cut="2.1520476341247559e+00" cType="1" res="2.3142028808593750e+02" rms="2.1493824005126953e+01" purity="1.0000000000000000e+00" nType="0">
                <Node pos="l" depth="5" NCoef="0" IVar="1" Cut="4.6712608337402344e+00" cType="1" res="2.1613238525390625e+02" rms="1.8916090011596680e+01" purity="1.0000000000000000e+00" nType="0">
                  <Node pos="l" depth="6" NCoef="0" IVar="-1" Cut="0.0000000000000000e+00" cType="1" res="2.0272558593750000e+02" rms="1.0180146217346191e+01" purity="1.0000000000000000e+00" nType="-99"/>
                  <Node pos="r" depth="6" NCoef="0" IVar="-1" Cut="0.0000000000000000e+00" cType="1" res="2.3357324218750000e+02" rms="1.2266809463500977e+01" purity="1.0000000000000000e+00" nType="-99"/>
                </Node>
                <Node pos="r" depth="5" NCoef="0" IVar="-1" Cut="2.4781074523925781e+00" cType="1" res="2.4519371032714844e+02" rms="1.2472272872924805e+01" purity="1.0000000000000000e+00" nType="1"/>
              </Node>
              <Node pos="r" depth="4" NCoef="0" IVar="1" Cut="4.7726550102233887e+00" cType="1" res="2.8447018432617188e+02" rms="1.7016445159912109e+01" purity="1.0000000000000000e+00" nType="0">
                <Node pos="l" depth="5" NCoef="0" IVar="-1" Cut="0.0000000000000000e+00" cType="1" res="2.6955935668945312e+02" rms="1.4163833618164062e+01" purity="1.0000000000000000e+00" nType="-99"/>
                <Node pos="r" depth="5" NCoef="0" IVar="-1" Cut="0.0000000000000000e+00" cType="1" res="2.9480230712890625e+02" rms="9.5067577362060547e+00" purity="1.0000000000000000e+00" nType="-99"/>
              </Node>
            </Node>
          </Node>
          <Node pos="r" depth="2" NCoef="0" IVar="1" Cut="4.3664646148681641e+00" cType="1" res="3.0529385375976562e+02" rms="4.5608985900878906e+01" purity="1.0000000000000000e+00" nType="0">
            <Node pos="l" depth="3" NCoef="0" IVar="0" Cut="4.6486792564392090e+00" cType="1" res="2.7362374877929688e+02" rms="2.7697755813598633e+01" purity="1.0000000000000000e+00" nType="0">
              <Node pos="l" depth="4" NCoef="0" IVar="1" Cut="3.9225900173187256e+00" cType="1" res="2.6330606079101562e+02" rms="2.1039876937866211e+01" purity="1.0000000000000000e+00" nType="0">
                <Node pos="l" depth="5" NCoef="0" IVar="0" Cut="4.2907724380493164e+00" cType="1" res="2.5047061157226562e+02" rms="1.5791984558105469e+01" purity="1.0000000000000000e+00" nType="0">
                  <Node pos="l" depth="6" NCoef="0" IVar="-1" Cut="0.0000000000000000e+00" cType="1" res="2.4024118041992188e+02" rms="1.4362916946411133e+01" purity="1.0000000000000000e+00" nType="-99"/>
                  <Node pos="r" depth="6" NCoef="0" IVar="-1" Cut="0.0000000000000000e+00" cType="1" res="2.6026644897460938e+02" rms="9.7205648422241211e+00" purity="1.0000000000000000e+00" nType="-99"/>
                </Node>
                <Node pos="r" depth="5" NCoef="0" IVar="-1" Cut="0.0000000000000000e+00" cType="1" res="2.8213906860351562e+02" rms="1.1396115303039551e+01" purity="1.0000000000000000e+00" nType="-99"/>
              </Node>
              <Node pos="r" depth="4" NCoef="0" IVar="-1" Cut="0.0000000000000000e+00" cType="1" res="3.0799572753906250e+02" rms="1.7665979385375977e+01" purity="1.0000000000000000e+00" nType="-99"/>
            </Node>
            <Node pos="r" depth="3" NCoef="0" IVar="0" Cut="4.5618152618408203e+00" cType="1" res="3.4722286987304688e+02" rms="2.7066221237182617e+01" purity="1.0000000000000000e+00" nType="0">
              <Node pos="l" depth="4" NCoef="0" IVar="1" Cut="4.7636284828186035e+00" cType="1" res="3.3072171020507812e+02" rms="1.8123840332031250e+01" purity="1.0000000000000000e+00" nType="0">
                <Node pos="l" depth="5" NCoef="0" IVar="-1" Cut="0.0000000000000000e+00" cType="1" res="3.1693841552734375e+02" rms="1.8315336227416992e+01" purity="1.0000000000000000e+00" nType="-99"/>
                <Node pos="r" depth="5" NCoef="0" IVar="-1" Cut="0.0000000000000000e+00" cType="1" res="3.4002136230468750e+02" rms="1.0445175170898438e+01" purity="1.0000000000000000e+00" nType="-99"/>
              </Node>
              <Node pos="r" depth="4" NCoef="0" IVar="-1" Cut="0.0000000000000000e+00" cType="1" res="3.7058340454101562e+02" rms="1.9325624465942383e+01" purity="1.0000000000000000e+00" nType="-99"/>
            </Node>
          </Node>
        </Node>
      </Node>
    </BinaryTree>
    <BinaryTree type="DecisionTree" boostWeight="2.1345947947690469e+00" itree="2">
      <Node pos="s" depth="0" NCoef="0" IVar="1" Cut="3.0946431159973145e+00" cType="1" res="2.0024284362792969e+02" rms="9.0730339050292969e+01" purity="1.0000000000000000e+00" nType="0">
        <Node pos="l" depth="1" NCoef="0" IVar="0" Cut="3.5736660957336426e+00" cType="1" res="1.2879403686523438e+02" rms="5.8462043762207031e+01" purity="1.0000000000000000e+00" nType="0">
          <Node pos="l" depth="2" NCoef="0" IVar="1" Cut="1.9160557985305786e+00" cType="1" res="8.1584739685058594e+01" rms="3.7184688568115234e+01" purity="1.0000000000000000e+00" nType="0">
            <Node pos="l" depth="3" NCoef="0" IVar="0" Cut="2.5525379180908203e+00" cType="1" res="5.7889694213867188e+01" rms="2.8874099731445312e+01" purity="1.0000000000000000e+00" nType="0">
              <Node pos="l" depth="4" NCoef="0" IVar="0" Cut="1.9449281692504883e+00" cType="1" res="3.5648948669433594e+01" rms="1.6588764190673828e+01" purity="1.0000000000000000e+00" nType="0">
                <Node pos="l" depth="5" NCoef="0" IVar="-1" Cut="1.1753996610641479e+00" cType="1" res="2.7496910095214844e+01" rms="1.2855077743530273e+01" purity="1.0000000000000000e+00" nType="1"/>
                <Node pos="r" depth="5" NCoef="0" IVar="-1" Cut="0.0000000000000000e+00" cType="1" res="5.0829456329345703e+01" rms="1.1211753845214844e+01" purity="1.0000000000000000e+00" nType="-99"/>
              </Node>
              <Node pos="r" depth="4" NCoef="0" IVar="0" Cut="3.1869561672210693e+00" cType="1" res="8.3201301574707031e+01" rms="1.6301265716552734e+01" purity="1.0000000000000000e+00" nType="0">
                <Node pos="l" depth="5" NCoef="0" IVar="-1" Cut="1.1427329778671265e+00" cType="1" res="7.3626083374023438e+01" rms="1.1837469100952148e+01" purity="1.0000000000000000e+00" nType="1"/>
                <Node pos="r" depth="5" NCoef="0" IVar="-1" Cut="1.2729214429855347e+00" cType="1" res="9.7326232910156250e+01" rms="1.0782215118408203e+01" purity="1.0000000000000000e+00" nType="1"/>
              </Node>
            </Node>
            <Node pos="r" depth="3" NCoef="0" IVar="0" Cut="2.5292489528656006e+00" cType="1" res="1.0677614593505859e+02" rms="2.7107921600341797e+01" purity="1.0000000000000000e+00" nType="0">
              <Node pos="l" depth="4" NCoef="0" IVar="0" Cut="2.0510873794555664e+00" cType="1" res="8.6349822998046875e+01" rms="1.9912359237670898e+01" purity="1.0000000000000000e+00" nType="0">
                <Node pos="l" depth="5" NCoef="0" IVar="-1" Cut="2.5925638675689697e+00" cType="1" res="7.3287200927734375e+01" rms="1.5907049179077148e+01" purity="1.0000000000000000e+00" nType="1"/>
                <Node pos="r" depth="5" NCoef="0" IVar="-1" Cut="2.5131473541259766e+00" cType="1" res="9.9286689758300781e+01" rms="1.4220989227294922e+01" purity="1.0000000000000000e+00" nType="1"/>
              </Node>
              <Node pos="r" depth="4" NCoef="0" IVar="1" Cut="2.5330858230590820e+00" cType="1" res="1.2555360412597656e+02" rms="1.7598798751831055e+01" purity="1.0000000000000000e+00" nType="0">
                <Node pos="l" depth="5" NCoef="0" IVar="-1" Cut="3.0650012493133545e+00" cType="1" res="1.1145481872558594e+02" rms="1.3403391838073730e+01" purity="1.0000000000000000e+00" nType="1"/>
                <Node pos="r" depth="5" NCoef="0" IVar="-1" Cut="2.9795134067535400e+00" cType="1" res="1.3637196350097656e+02" rms="1.1830414772033691e+01" purity="1.0000000000000000e+00" nType="1"/>
              </Node>
            </Node>
          </Node>
          <Node pos="r" depth="2" NCoef="0" IVar="1" Cut="2.2077393531799316e+00" cType="1" res="1.7150068664550781e+02" rms="3.7667102813720703e+01" purity="1.0000000000000000e+00" nType="0">
            <Node pos="l" depth="3" NCoef="0" IVar="0" Cut="4.2458257675170898e+00" cType="1" res="1.5191973876953125e+02" rms="2.8017723083496094e+01" purity="1.0000000000000000e+00" nType="0">
              <Node pos="l" depth="4" NCoef="0" IVar="1" Cut="1.3735536336898804e+00" cType="1" res="1.2541477966308594e+02" rms="1.7022863388061523e+01" purity="1.0000000000000000e+00" nType="0">
                <Node pos="l" depth="5" NCoef="0" IVar="-1" Cut="3.8587539196014404e+00" cType="1" res="1.1443528747558594e+02" rms="1.2516353607177734e+01" purity="1.0000000000000000e+00" nType="1"/>
                <Node pos="r" depth="5" NCoef="0" IVar="-1" Cut="3.8730099201202393e+00" cType="1" res="1.3930567932128906e+02" rms="1.0617139816284180e+01" purity="1.0000000000000000e+00" nType="1"/>
              </Node>
              <Node pos="r" depth="4" NCoef="0" IVar="0" Cut="4.7076811790466309e+00" cType="1" res="1.6889506530761719e+02" rms="1.9080486297607422e+01" purity="1.0000000000000000e+00" nType="0">
                <Node pos="l" depth="5" NCoef="0" IVar="1" Cut="1.6707088947296143e+00" cType="1" res="1.5877856445312500e+02" rms="1.4763546943664551e+01" purity="1.0000000000000000e+00" nType="0">
                  <Node pos="l" depth="6" NCoef="0" IVar="-1" Cut="4.5112109184265137e+00" cType="1" res="1.5097561645507812e+02" rms="1.0308183670043945e+01" purity="1.0000000000000000e+00" nType="1"/>
                  <Node pos="r" depth="6" NCoef="0" IVar="-1" Cut="0.0000000000000000e+00" cType="1" res="1.7467741394042969e+02" rms="8.2904806137084961e+00" purity="1.0000000000000000e+00" nType="-99"/>
                </Node>
                <Node pos="r" depth="5" NCoef="0" IVar="1" Cut="1.3687571287155151e+00" cType="1" res="1.8383822631835938e+02" rms="1.4331919670104980e+01" purity="1.0000000000000000e+00" nType="0">
                  <Node pos="l" depth="6" NCoef="0" IVar="-1" Cut="0.0000000000000000e+00" cType="1" res="1.7396696472167969e+02" rms="5.9230275154113770e+00" purity="1.0000000000000000e+00" nType="-99"/>
                  <Node pos="r" depth="6" NCoef="0" IVar="-1" Cut="0.0000000000000000e+00" cType="1" res="1.9619728088378906e+02" rms="1.1996038436889648e+01" purity="1.0000000000000000e+00" nType="-99"/>
                </Node>
              </Node>
            </Node>
            <Node pos="r" depth="3" NCoef="0" IVar="0" Cut="4.2562785148620605e+00" cType="1" res="2.0435832214355469e+02" rms="2.7556777954101562e+01" purity="1.0000000000000000e+00" nType="0">
              <Node pos="l" depth="4" NCoef="0" IVar="-1" Cut="3.8994634151458740e+00" cType="1" res="1.7570179748535156e+02" rms="1.6096540451049805e+01" purity="1.0000000000000000e+00" nType="1"/>
              <Node pos="r" depth="4" NCoef="0" IVar="0" Cut="4.6148409843444824e+00" cType="1" res="2.2052796936035156e+02" rms="1.7799924850463867e+01" purity="1.0000000000000000e+00" nType="0">
                <Node pos="l" depth="5" NCoef="0" IVar="-1" Cut="0.0000000000000000e+00" cType="1" res="2.0600897216796875e+02" rms="1.1654748916625977e+01" purity="1.0000000000000000e+00" nType="-99"/>
                <Node pos="r" depth="5" NCoef="0" IVar="-1" Cut="2.7549180984497070e+00" cType="1" res="2.3025335693359375e+02" rms="1.4223042488098145e+01" purity="1.0000000000000000e+00" nType="1"/>
              </Node>
            </Node>
          </Node>
        </Node>
        <Node pos="r" depth="1" NCoef="0" IVar="0" Cut="3.8069715499877930e+00" cType="1" res="2.5840121459960938e+02" rms="6.7918586730957031e+01" purity="1.0000000000000000e+00" nType="0">
          <Node pos="l" depth="2" NCoef="0" IVar="1" Cut="4.0922803878784180e+00" cType="1" res="2.0847581481933594e+02" rms="4.9401805877685547e+01" purity="1.0000000000000000e+00" nType="0">
            <Node pos="l" depth="3" NCoef="0" IVar="0" Cut="2.8792092800140381e+00" cType="1" res="1.7476837158203125e+02" rms="3.4583503723144531e+01" purity="1.0000000000000000e+00" nType="0">
              <Node pos="l" depth="4" NCoef="0" IVar="1" Cut="3.7540600299835205e+00" cType="1" res="1.5001156616210938e+02" rms="2.3476078033447266e+01" purity="1.0000000000000000e+00" nType="0">
                <Node pos="l" depth="5" NCoef="0" IVar="0" Cut="1.6452679634094238e+00" cType="1" res="1.3612197875976562e+02" rms="1.7333543777465820e+01" purity="1.0000000000000000e+00" nType="0">
                  <Node pos="l" depth="6" NCoef="0" IVar="-1" Cut="0.0000000000000000e+00" cType="1" res="1.1679183959960938e+02" rms="1.0641676902770996e+01" purity="1.0000000000000000e+00" nType="-99"/>
                  <Node pos="r" depth="6" NCoef="0" IVar="-1" Cut="2.5597896575927734e+00" cType="1" res="1.4531509399414062e+02" rms="1.1281264305114746e+01" purity="1.0000000000000000e+00" nType="1"/>
                </Node>
                <Node pos="r" depth="5" NCoef="0" IVar="0" Cut="2.0742223262786865e+00" cType="1" res="1.6885432434082031e+02" rms="1.6565814971923828e+01" purity="1.0000000000000000e+00" nType="0">
                  <Node pos="l" depth="6" NCoef="0" IVar="-1" Cut="0.0000000000000000e+00" cType="1" res="1.5334797668457031e+02" rms="1.0939862251281738e+01" purity="1.0000000000000000e+00" nType="-99"/>
                  <Node pos="r" depth="6" NCoef="0" IVar="-1" Cut="0.0000000000000000e+00" cType="1" res="1.8152008056640625e+02" rms="6.6335043907165527e+00" purity="1.0000000000000000e+00" nType="-99"/>
                </Node>
              </Node>
              <Node pos="r" depth="4" NCoef="0" IVar="1" Cut="3.5252909660339355e+00" cType="1" res="2.0151692199707031e+02" rms="2.2695831298828125e+01" purity="1.0000000000000000e+00" nType="0">
                <Node pos="l" depth="5" NCoef="0" IVar="-1" Cut="0.0000000000000000e+00" cType="1" res="1.7896842956542969e+02" rms="1.0834455490112305e+01" purity="1.0000000000000000e+00" nType="-99"/>
                <Node pos="r" depth="5" NCoef="0" IVar="0" Cut="3.4430296421051025e+00" cType="1" res="2.1416632080078125e+02" rms="1.7116706848144531e+01" purity="1.0000000000000000e+00" nType="0">
                  <Node pos="l" depth="6" NCoef="0" IVar="-1" Cut="0.0000000000000000e+00" cType="1" res="1.9756280517578125e+02" rms="1.3464707374572754e+01" purity="1.0000000000000000e+00" nType="-99"/>
                  <Node pos="r" depth="6" NCoef="0" IVar="-1" Cut="0.0000000000000000e+00" cType="1" res="2.2476713562011719e+02" rms="8.7120389938354492e+00" purity="1.0000000000000000e+00" nType="-99"/>
                </Node>
              </Node>
            </Node>
            <Node pos="r" depth="3" NCoef="0" IVar="0" Cut="2.8941493034362793e+00" cType="1" res="2.4325555419921875e+02" rms="3.6642627716064453e+01" purity="1.0000000000000000e+00" nType="0">
              <Node pos="l" depth="4" NCoef="0" IVar="1" Cut="4.5676341056823730e+00" cType="1" res="2.1982662963867188e+02" rms="2.7252092361450195e+01" purity="1.0000000000000000e+00" nType="0">
                <Node pos="l" depth="5" NCoef="0" IVar="0" Cut="1.6614321470260620e+00" cType="1" res="1.9994813537597656e+02" rms="1.8496107101440430e+01" purity="1.0000000000000000e+00" nType="0">
                  <Node pos="l" depth="6" NCoef="0" IVar="-1" Cut="0.0000000000000000e+00" cType="1" res="1.7898283386230469e+02" rms="8.9129610061645508e+00" purity="1.0000000000000000e+00" nType="-99"/>
                  <Node pos="r" depth="6" NCoef="0" IVar="-1" Cut="0.0000000000000000e+00" cType="1" res="2.1085697937011719e+02" rms="1.1448489189147949e+01" purity="1.0000000000000000e+00" nType="-99"/>
                </Node>
                <Node pos="r" depth="5" NCoef="0" IVar="0" Cut="1.7519695758819580e+00" cType="1" res="2.3942837524414062e+02" rms="1.9073242187500000e+01" purity="1.0000000000000000e+00" nType="0">
                  <Node pos="l" depth="6" NCoef="0" IVar="-1" Cut="0.0000000000000000e+00" cType="1" res="2.1749220275878906e+02" rms="1.2270317077636719e+01" purity="1.0000000000000000e+00" nType="-99"/>
                  <Node pos="r" depth="6" NCoef="0" IVar="-1" Cut="4.7564191818237305e+00" cType="1" res="2.4784277343750000e+02" rms="1.3791228294372559e+01" purity="1.0000000000000000e+00" nType="1"/>
                </Node>
              </Node>
              <Node pos="r" depth="4" NCoef="0" IVar="1" Cut="4.5145421028137207e+00" cType="1" res="2.7294619750976562e+02" rms="2.2932367324829102e+01" purity="1.0000000000000000e+00" nType="0">
                <Node pos="l" depth="5" NCoef="0" IVar="-1" Cut="0.0000000000000000e+00" cType="1" res="2.5243249511718750e+02" rms="1.0067019462585449e+01" purity="1.0000000000000000e+00" nType="-99"/>
                <Node pos="r" depth="5" NCoef="0" IVar="-1" Cut="0.0000000000000000e+00" cType="1" res="2.9235971069335938e+02" rms="1.2350898742675781e+01" purity="1.0000000000000000e+00" nType="-99"/>
              </Node>
            </Node>
          </Node>
          <Node pos="r" depth="2" NCoef="0" IVar="1" Cut="4.2781672477722168e+00" cType="1" res="3.0374938964843750e+02" rms="4.7599163055419922e+01" purity="1.0000000000000000e+00" nType="0">
            <Node pos="l" depth="3" NCoef="0" IVar="1" Cut="4.0015106201171875e+00" cType="1" res="2.6969198608398438e+02" rms="2.8182773590087891e+01" purity="1.0000000000000000e+00" nType="0">
              <Node pos="l" depth="4" NCoef="0" IVar="0" Cut="4.4829678535461426e+00" cType="1" res="2.5954547119140625e+02" rms="2.3344797134399414e+01" purity="1.0000000000000000e+00" nType="0">
                <Node pos="l" depth="5" NCoef="0" IVar="1" Cut="3.7109293937683105e+00" cType="1" res="2.3977970886230469e+02" rms="1.8619899749755859e+01" purity="1.0000000000000000e+00" nType="0">
                  <Node pos="l" depth="6" NCoef="0" IVar="-1" Cut="0.0000000000000000e+00" cType="1" res="2.2722178649902344e+02" rms="1.3017702102661133e+01" purity="1.0000000000000000e+00" nType="-99"/>
                  <Node pos="r" depth="6" NCoef="0" IVar="-1" Cut="0.0000000000000000e+00" cType="1" res="2.5760003662109375e+02" rms="7.5407657623291016e+00" purity="1.0000000000000000e+00" nType="-99"/>
                </Node>
                <Node pos="r" depth="5" NCoef="0" IVar="-1" Cut="0.0000000000000000e+00" cType="1" res="2.7367480468750000e+02" rms="1.4415345191955566e+01" purity="1.0000000000000000e+00" nType="-99"/>
              </Node>
              <Node pos="r" depth="4" NCoef="0" IVar="-1" Cut="0.0000000000000000e+00" cType="1" res="2.9521304321289062e+02" rms="2.2605752944946289e+01" purity="1.0000000000000000e+00" nType="-99"/>
            </Node>
            <Node pos="r" depth="3" NCoef="0" IVar="0" Cut="4.0746665000915527e+00" cType="1" res="3.4426129150390625e+02" rms="3.1543733596801758e+01" purity="1.0000000000000000e+00" nType="0">
              <Node pos="l" depth="4" NCoef="0" IVar="-1" Cut="0.0000000000000000e+00" cType="1" res="2.9985882568359375e+02" rms="2.0149274826049805e+01" purity="1.0000000000000000e+00" nType="-99"/>
              <Node pos="r" depth="4" NCoef="0" IVar="1" Cut="4.7651643753051758e+00" cType="1" res="3.5560266113281250e+02" rms="2.2654846191406250e+01" purity="1.0000000000000000e+00" nType="0">
                <Node pos="l" depth="5" NCoef="0" IVar="-1" Cut="0.0000000000000000e+00" cType="1" res="3.4078799438476562e+02" rms="1.0052942276000977e+01" purity="1.0000000000000000e+00" nType="-99"/>
                <Node pos="r" depth="5" NCoef="0" IVar="-1" Cut="0.0000000000000000e+00" cType="1" res="3.7126013183593750e+02" rms="2.1719894409179688e+01" purity="1.0000000000000000e+00" nType="-99"/>
              </Node>
            </Node>
          </Node>
        </Node>
      </Node>
    </BinaryTree>
    <BinaryTree type="DecisionTree" boostWeight="2.4450945899714513e+00" itree="3">
      <Node pos="s" depth="0" NCoef="0" IVar="1" Cut="3.5702474117279053e+00" cType="1" res="2.1900811767578125e+02" rms="9.4206443786621094e+01" purity="1.0000000000000000e+00" nType="0">
        <Node pos="l" depth="1" NCoef="0" IVar="0" Cut="3.5729935169219971e+00" cType="1" res="1.4908784484863281e+02" rms="6.6023406982421875e+01" purity="1.0000000000000000e+00" nType="0">
          <Node pos="l" depth="2" NCoef="0" IVar="1" Cut="2.3818411827087402e+00" cType="1" res="9.5308860778808594e+01" rms="4.4466979980468750e+01" purity="1.0000000000000000e+00" nType="0">
            <Node pos="l" depth="3" NCoef="0" IVar="0" Cut="2.3833136558532715e+00" cType="1" res="6.5221580505371094e+01" rms="3.0372037887573242e+01" purity="1.0000000000000000e+00" nType="0">
              <Node pos="l" depth="4" NCoef="0" IVar="1" Cut="1.4637033939361572e+00" cType="1" res="3.9370384216308594e+01" rms="1.8894624710083008e+01" purity="1.0000000000000000e+00" nType="0">
                <Node pos="l" depth="5" NCoef="0" IVar="-1" Cut="1.6679071187973022e+00" cType="1" res="2.6604751586914062e+01" rms="1.1673764228820801e+01" purity="1.0000000000000000e+00" nType="1"/>
                <Node pos="r" depth="5" NCoef="0" IVar="-1" Cut="1.7087777853012085e+00" cType="1" res="5.4809913635253906e+01" rms="1.3729409217834473e+01" purity="1.0000000000000000e+00" nType="1"/>
              </Node>
              <Node pos="r" depth="4" NCoef="0" IVar="1" Cut="1.5802000761032104e+00" cType="1" res="8.5867218017578125e+01" rms="2.0349313735961914e+01" purity="1.0000000000000000e+00" nType="0">
                <Node pos="l" depth="5" NCoef="0" IVar="0" Cut="3.0112998485565186e+00" cType="1" res="7.3170249938964844e+01" rms="1.6144424438476562e+01" purity="1.0000000000000000e+00" nType="0">
                  <Node pos="l" depth="6" NCoef="0" IVar="-1" Cut="0.0000000000000000e+00" cType="1" res="6.2162704467773438e+01" rms="1.0478419303894043e+01" purity="1.0000000000000000e+00" nType="-99"/>
                  <Node pos="r" depth="6" NCoef="0" IVar="-1" Cut="0.0000000000000000e+00" cType="1" res="8.6547523498535156e+01" rms="1.0851700782775879e+01" purity="1.0000000000000000e+00" nType="-99"/>
                </Node>
                <Node pos="r" depth="5" NCoef="0" IVar="-1" Cut="2.8774828910827637e+00" cType="1" res="1.0009782409667969e+02" rms="1.4243811607360840e+01" purity="1.0000000000000000e+00" nType="1"/>
              </Node>
            </Node>
            <Node pos="r" depth="3" NCoef="0" IVar="0" Cut="2.5512139797210693e+00" cType="1" res="1.2909881591796875e+02" rms="3.1679168701171875e+01" purity="1.0000000000000000e+00" nType="0">
              <Node pos="l" depth="4" NCoef="0" IVar="1" Cut="3.0089824199676514e+00" cType="1" res="1.0514098358154297e+02" rms="2.2766313552856445e+01" purity="1.0000000000000000e+00" nType="0">
                <Node pos="l" depth="5" NCoef="0" IVar="-1" Cut="2.0403542518615723e+00" cType="1" res="8.9211105346679688e+01" rms="1.6433443069458008e+01" purity="1.0000000000000000e+00" nType="1"/>
                <Node pos="r" depth="5" NCoef="0" IVar="-1" Cut="1.9287779331207275e+00" cType="1" res="1.2115442657470703e+02" rms="1.6010356903076172e+01" purity="1.0000000000000000e+00" nType="1"/>
              </Node>
              <Node pos="r" depth="4" NCoef="0" IVar="1" Cut="3.0071268081665039e+00" cType="1" res="1.4966572570800781e+02" rms="2.2459180831909180e+01" purity="1.0000000000000000e+00" nType="0">
                <Node pos="l" depth="5" NCoef="0" IVar="-1" Cut="3.0190219879150391e+00" cType="1" res="1.3140977478027344e+02" rms="1.3753481864929199e+01" purity="1.0000000000000000e+00" nType="1"/>
                <Node pos="r" depth="5" NCoef="0" IVar="0" Cut="2.9428844451904297e+00" cType="1" res="1.6538464355468750e+02" rms="1.5550310134887695e+01" purity="1.0000000000000000e+00" nType="0">
                  <Node pos="l" depth="6" NCoef="0" IVar="-1" Cut="0.0000000000000000e+00" cType="1" res="1.5015341186523438e+02" rms="8.9779300689697266e+00" purity="1.0000000000000000e+00" nType="-99"/>
                  <Node pos="r" depth="6" NCoef="0" IVar="-1" Cut="0.0000000000000000e+00" cType="1" res="1.7453732299804688e+02" rms="1.0747416496276855e+01" purity="1.0000000000000000e+00" nType="-99"/>
                </Node>
              </Node>
            </Node>
          </Node>
          <Node pos="r" depth="2" NCoef="0" IVar="1" Cut="2.7131187915802002e+00" cType="1" res="1.9148623657226562e+02" rms="4.6465854644775391e+01" purity="1.0000000000000000e+00" nType="0">
            <Node pos="l" depth="3" NCoef="0" IVar="0" Cut="4.3897995948791504e+00" cType="1" res="1.6073493957519531e+02" rms="3.0944234848022461e+01" purity="1.0000000000000000e+00" nType="0">
              <Node pos="l" depth="4" NCoef="0" IVar="1" Cut="1.4152109622955322e+00" cType="1" res="1.4128056335449219e+02" rms="2.3770421981811523e+01" purity="1.0000000000000000e+00" nType="0">
                <Node pos="l" depth="5" NCoef="0" IVar="0" Cut="3.9642858505249023e+00" cType="1" res="1.1930847930908203e+02" rms="1.4328867912292480e+01" purity="1.0000000000000000e+00" nType="0">
                  <Node pos="l" depth="6" NCoef="0" IVar="-1" Cut="0.0000000000000000e+00" cType="1" res="1.0683169555664062e+02" rms="9.3340587615966797e+00" purity="1.0000000000000000e+00" nType="-99"/>
                  <Node pos="r" depth="6" NCoef="0" IVar="-1" Cut="0.0000000000000000e+00" cType="1" res="1.3073756408691406e+02" rms="6.3530597686767578e+00" purity="1.0000000000000000e+00" nType="-99"/>
                </Node>
                <Node pos="r" depth="5" NCoef="0" IVar="0" Cut="3.8093757629394531e+00" cType="1" res="1.5491514587402344e+02" rms="1.7400283813476562e+01" purity="1.0000000000000000e+00" nType="0">
                  <Node pos="l" depth="6" NCoef="0" IVar="-1" Cut="0.0000000000000000e+00" cType="1" res="1.3592245483398438e+02" rms="1.1800924301147461e+01" purity="1.0000000000000000e+00" nType="-99"/>
                  <Node pos="r" depth="6" NCoef="0" IVar="-1" Cut="2.0918335914611816e+00" cType="1" res="1.6144895935058594e+02" rms="1.3864855766296387e+01" purity="1.0000000000000000e+00" nType="1"/>
                </Node>
              </Node>
              <Node pos="r" depth="4" NCoef="0" IVar="1" Cut="1.9685330390930176e+00" cType="1" res="1.8393252563476562e+02" rms="2.0884426116943359e+01" purity="1.0000000000000000e+00" nType="0">
                <Node pos="l" depth="5" NCoef="0" IVar="-1" Cut="1.0261527299880981e+00" cType="1" res="1.6950274658203125e+02" rms="1.2245392799377441e+01" purity="1.0000000000000000e+00" nType="1"/>
                <Node pos="r" depth="5" NCoef="0" IVar="-1" Cut="4.7137165069580078e+00" cType="1" res="2.0473405456542969e+02" rms="1.0765017509460449e+01" purity="1.0000000000000000e+00" nType="1"/>
              </Node>
            </Node>
            <Node pos="r" depth="3" NCoef="0" IVar="0" Cut="4.3217124938964844e+00" cType="1" res="2.3255311584472656e+02" rms="2.8536159515380859e+01" purity="1.0000000000000000e+00" nType="0">
              <Node pos="l" depth="4" NCoef="0" IVar="1" Cut="3.0393021106719971e+00" cType="1" res="2.0212710571289062e+02" rms="1.7301881790161133e+01" purity="1.0000000000000000e+00" nType="0">
                <Node pos="l" depth="5" NCoef="0" IVar="-1" Cut="0.0000000000000000e+00" cType="1" res="1.8661231994628906e+02" rms="1.5420394897460938e+01" purity="1.0000000000000000e+00" nType="-99"/>
                <Node pos="r" depth="5" NCoef="0" IVar="-1" Cut="0.0000000000000000e+00" cType="1" res="2.1086718750000000e+02" rms="1.1047553062438965e+01" purity="1.0000000000000000e+00" nType="-99"/>
              </Node>
              <Node pos="r" depth="4" NCoef="0" IVar="1" Cut="3.0792746543884277e+00" cType="1" res="2.4945280456542969e+02" rms="1.7336343765258789e+01" purity="1.0000000000000000e+00" nType="0">
                <Node pos="l" depth="5" NCoef="0" IVar="-1" Cut="0.0000000000000000e+00" cType="1" res="2.3066641235351562e+02" rms="1.2198956489562988e+01" purity="1.0000000000000000e+00" nType="-99"/>
                <Node pos="r" depth="5" NCoef="0" IVar="-1" Cut="0.0000000000000000e+00" cType="1" res="2.5815557861328125e+02" rms="1.1472014427185059e+01" purity="1.0000000000000000e+00" nType="-99"/>
              </Node>
            </Node>
          </Node>
        </Node>
        <Node pos="r" depth="1" NCoef="0" IVar="0" Cut="3.8069715499877930e+00" cType="1" res="2.8745077514648438e+02" rms="6.1848701477050781e+01" purity="1.0000000000000000e+00" nType="0">
          <Node pos="l" depth="2" NCoef="0" IVar="1" Cut="4.4557127952575684e+00" cType="1" res="2.2651081848144531e+02" rms="4.5174037933349609e+01" purity="1.0000000000000000e+00" nType="0">
            <Node pos="l" depth="3" NCoef="0" IVar="0" Cut="3.0667123794555664e+00" cType="1" res="2.0380885314941406e+02" rms="3.5925365447998047e+01" purity="1.0000000000000000e+00" nType="0">
              <Node pos="l" depth="4" NCoef="0" IVar="1" Cut="4.1172957420349121e+00" cType="1" res="1.7958509826660156e+02" rms="2.4884984970092773e+01" purity="1.0000000000000000e+00" nType="0">
                <Node pos="l" depth="5" NCoef="0" IVar="0" Cut="1.8078998327255249e+00" cType="1" res="1.6553836059570312e+02" rms="1.9165990829467773e+01" purity="1.0000000000000000e+00" nType="0">
                  <Node pos="l" depth="6" NCoef="0" IVar="-1" Cut="0.0000000000000000e+00" cType="1" res="1.4315196228027344e+02" rms="1.0789835929870605e+01" purity="1.0000000000000000e+00" nType="-99"/>
                  <Node pos="r" depth="6" NCoef="0" IVar="-1" Cut="2.3964190483093262e+00" cType="1" res="1.7632199096679688e+02" rms="1.1424029350280762e+01" purity="1.0000000000000000e+00" nType="1"/>
                </Node>
                <Node pos="r" depth="5" NCoef="0" IVar="0" Cut="1.9334884881973267e+00" cType="1" res="1.9930409240722656e+02" rms="1.7524118423461914e+01" purity="1.0000000000000000e+00" nType="0">
                  <Node pos="l" depth="6" NCoef="0" IVar="-1" Cut="0.0000000000000000e+00" cType="1" res="1.8481576538085938e+02" rms="1.1993274688720703e+01" purity="1.0000000000000000e+00" nType="-99"/>
                  <Node pos="r" depth="6" NCoef="0" IVar="-1" Cut="0.0000000000000000e+00" cType="1" res="2.1171165466308594e+02" rms="1.0639171600341797e+01" purity="1.0000000000000000e+00" nType="-99"/>
                </Node>
              </Node>
              <Node pos="r" depth="4" NCoef="0" IVar="1" Cut="4.1159157752990723e+00" cType="1" res="2.3506060791015625e+02" rms="2.0568853378295898e+01" purity="1.0000000000000000e+00" nType="0">
                <Node pos="l" depth="5" NCoef="0" IVar="-1" Cut="3.4481828212738037e+00" cType="1" res="2.2069525146484375e+02" rms="1.3511873245239258e+01" purity="1.0000000000000000e+00" nType="1"/>
                <Node pos="r" depth="5" NCoef="0" IVar="-1" Cut="0.0000000000000000e+00" cType="1" res="2.5313989257812500e+02" rms="1.1797794342041016e+01" purity="1.0000000000000000e+00" nType="-99"/>
              </Node>
            </Node>
            <Node pos="r" depth="3" NCoef="0" IVar="0" Cut="2.8941493034362793e+00" cType="1" res="2.6223587036132812e+02" rms="3.3670822143554688e+01" purity="1.0000000000000000e+00" nType="0">
              <Node pos="l" depth="4" NCoef="0" IVar="1" Cut="4.7971949577331543e+00" cType="1" res="2.3748287963867188e+02" rms="2.0561082839965820e+01" purity="1.0000000000000000e+00" nType="0">
                <Node pos="l" depth="5" NCoef="0" IVar="-1" Cut="2.2854068279266357e+00" cType="1" res="2.2579467773437500e+02" rms="1.6532403945922852e+01" purity="1.0000000000000000e+00" nType="1"/>
                <Node pos="r" depth="5" NCoef="0" IVar="-1" Cut="0.0000000000000000e+00" cType="1" res="2.5281147766113281e+02" rms="1.4304193496704102e+01" purity="1.0000000000000000e+00" nType="-99"/>
              </Node>
              <Node pos="r" depth="4" NCoef="0" IVar="1" Cut="4.7726821899414062e+00" cType="1" res="2.9167034912109375e+02" rms="1.9600389480590820e+01" purity="1.0000000000000000e+00" nType="0">
                <Node pos="l" depth="5" NCoef="0" IVar="-1" Cut="0.0000000000000000e+00" cType="1" res="2.7346972656250000e+02" rms="1.4230111122131348e+01" purity="1.0000000000000000e+00" nType="-99"/>
                <Node pos="r" depth="5" NCoef="0" IVar="-1" Cut="0.0000000000000000e+00" cType="1" res="3.0154672241210938e+02" rms="1.4333959579467773e+01" purity="1.0000000000000000e+00" nType="-99"/>
              </Node>
            </Node>
          </Node>
          <Node pos="r" depth="2" NCoef="0" IVar="1" Cut="4.5263128280639648e+00" cType="1" res="3.2187625122070312e+02" rms="3.9374828338623047e+01" purity="1.0000000000000000e+00" nType="0">
            <Node pos="l" depth="3" NCoef="0" IVar="0" Cut="4.6486792564392090e+00" cType="1" res="2.9707437133789062e+02" rms="2.8959720611572266e+01" purity="1.0000000000000000e+00" nType="0">
              <Node pos="l" depth="4" NCoef="0" IVar="1" Cut="4.2544813156127930e+00" cType="1" res="2.7521133422851562e+02" rms="1.8338026046752930e+01" purity="1.0000000000000000e+00" nType="0">
                <Node pos="l" depth="5" NCoef="0" IVar="-1" Cut="3.8938844203948975e+00" cType="1" res="2.6563073730468750e+02" rms="1.3085923194885254e+01" purity="1.0000000000000000e+00" nType="1"/>
                <Node pos="r" depth="5" NCoef="0" IVar="-1" Cut="0.0000000000000000e+00" cType="1" res="2.9194116210937500e+02" rms="1.3576201438903809e+01" purity="1.0000000000000000e+00" nType="-99"/>
              </Node>
              <Node pos="r" depth="4" NCoef="0" IVar="-1" Cut="0.0000000000000000e+00" cType="1" res="3.2135281372070312e+02" rms="1.6622526168823242e+01" purity="1.0000000000000000e+00" nType="-99"/>
            </Node>
            <Node pos="r" depth="3" NCoef="0" IVar="0" Cut="4.3453049659729004e+00" cType="1" res="3.5451422119140625e+02" rms="2.4743307113647461e+01" purity="1.0000000000000000e+00" nType="0">
              <Node pos="l" depth="4" NCoef="0" IVar="-1" Cut="0.0000000000000000e+00" cType="1" res="3.3358493041992188e+02" rms="5.7094821929931641e+00" purity="1.0000000000000000e+00" nType="-99"/>
              <Node pos="r" depth="4" NCoef="0" IVar="-1" Cut="0.0000000000000000e+00" cType="1" res="3.7553134155273438e+02" rms="1.7683460235595703e+01" purity="1.0000000000000000e+00" nType="-99"/>
            </Node>
          </Node>
        </Node>
      </Node>
    </BinaryTree>
    <BinaryTree type="DecisionTree" boostWeight="2.6008282250359325e+00" itree="4">
      <Node pos="s" depth="0" NCoef="0" IVar="1" Cut="3.5702474117279053e+00" cType="1" res="2.2944219970703125e+02" rms="9.3993492126464844e+01" purity="1.0000000000000000e+00" nType="0">
        <Node pos="l" depth="1" NCoef="0" IVar="0" Cut="3.5729935169219971e+00" cType="1" res="1.5213475036621094e+02" rms="6.6736923217773438e+01" purity="1.0000000000000000e+00" nType="0">
          <Node pos="l" depth="2" NCoef="0" IVar="1" Cut="2.5512828826904297e+00" cType="1" res="9.5767478942871094e+01" rms="4.3912113189697266e+01" purity="1.0000000000000000e+00" nType="0">
            <Node pos="l" depth="3" NCoef="0" IVar="0" Cut="2.7217624187469482e+00" cType="1" res="6.9748489379882812e+01" rms="3.1771051406860352e+01" purity="1.0000000000000000e+00" nType="0">
              <Node pos="l" depth="4" NCoef="0" IVar="1" Cut="1.4415291547775269e+00" cType="1" res="5.1232135772705078e+01" rms="2.4156084060668945e+01" purity="1.0000000000000000e+00" nType="0">
                <Node pos="l" depth="5" NCoef="0" IVar="-1" Cut="1.8162714242935181e+00" cType="1" res="3.3055885314941406e+01" rms="1.6547016143798828e+01" purity="1.0000000000000000e+00" nType="1"/>
                <Node pos="r" depth="5" NCoef="0" IVar="-1" Cut="1.9202593564987183e+00" cType="1" res="6.6252616882324219e+01" rms="1.8461462020874023e+01" purity="1.0000000000000000e+00" nType="1"/>
              </Node>
              <Node pos="r" depth="4" NCoef="0" IVar="1" Cut="1.5513656139373779e+00" cType="1" res="9.6528709411621094e+01" rms="2.0305252075195312e+01" purity="1.0000000000000000e+00" nType="0">
                <Node pos="l" depth="5" NCoef="0" IVar="-1" Cut="9.6083682775497437e-01" cType="1" res="8.0648048400878906e+01" rms="1.3169905662536621e+01" purity="1.0000000000000000e+00" nType="1"/>
                <Node pos="r" depth="5" NCoef="0" IVar="-1" Cut="3.2633502483367920e+00" cType="1" res="1.1083666229248047e+02" rms="1.3984569549560547e+01" purity="1.0000000000000000e+00" nType="1"/>
              </Node>
            </Node>
            <Node pos="r" depth="3" NCoef="0" IVar="0" Cut="2.7205071449279785e+00" cType="1" res="1.3212899780273438e+02" rms="3.0727008819580078e+01" purity="1.0000000000000000e+00" nType="0">
              <Node pos="l" depth="4" NCoef="0" IVar="0" Cut="1.5563814640045166e+00" cType="1" res="1.1329568481445312e+02" rms="2.2689538955688477e+01" purity="1.0000000000000000e+00" nType="0">
                <Node pos="l" depth="5" NCoef="0" IVar="-1" Cut="0.0000000000000000e+00" cType="1" res="9.1037643432617188e+01" rms="1.6293710708618164e+01" purity="1.0000000000000000e+00" nType="-99"/>
                <Node pos="r" depth="5" NCoef="0" IVar="-1" Cut="3.0477182865142822e+00" cType="1" res="1.2483020782470703e+02" rms="1.5944948196411133e+01" purity="1.0000000000000000e+00" nType="1"/>
              </Node>
              <Node pos="r" depth="4" NCoef="0" IVar="1" Cut="3.0793187618255615e+00" cType="1" res="1.5788656616210938e+02" rms="1.9564739227294922e+01" purity="1.0000000000000000e+00" nType="0">
                <Node pos="l" depth="5" NCoef="0" IVar="-1" Cut="0.0000000000000000e+00" cType="1" res="1.3927795410156250e+02" rms="9.8001842498779297e+00" purity="1.0000000000000000e+00" nType="-99"/>
                <Node pos="r" depth="5" NCoef="0" IVar="-1" Cut="0.0000000000000000e+00" cType="1" res="1.6973695373535156e+02" rms="1.4297835350036621e+01" purity="1.0000000000000000e+00" nType="-99"/>
              </Node>
            </Node>
          </Node>
          <Node pos="r" depth="2" NCoef="0" IVar="1" Cut="2.7131187915802002e+00" cType="1" res="1.9393753051757812e+02" rms="4.7148868560791016e+01" purity="1.0000000000000000e+00" nType="0">
            <Node pos="l" depth="3" NCoef="0" IVar="0" Cut="4.1197266578674316e+00" cType="1" res="1.6023397827148438e+02" rms="3.1629035949707031e+01" purity="1.0000000000000000e+00" nType="0">
              <Node pos="l" depth="4" NCoef="0" IVar="1" Cut="1.8027436733245850e+00" cType="1" res="1.3248736572265625e+02" rms="2.2077880859375000e+01" purity="1.0000000000000000e+00" nType="0">
                <Node pos="l" depth="5" NCoef="0" IVar="-1" Cut="8.7329220771789551e-01" cType="1" res="1.1613430786132812e+02" rms="1.3714632034301758e+01" purity="1.0000000000000000e+00" nType="1"/>
                <Node pos="r" depth="5" NCoef="0" IVar="-1" Cut="0.0000000000000000e+00" cType="1" res="1.5357371520996094e+02" rms="9.1627893447875977e+00" purity="1.0000000000000000e+00" nType="-99"/>
              </Node>
              <Node pos="r" depth="4" NCoef="0" IVar="1" Cut="1.9286643266677856e+00" cType="1" res="1.7619548034667969e+02" rms="2.4450677871704102e+01" purity="1.0000000000000000e+00" nType="0">
                <Node pos="l" depth="5" NCoef="0" IVar="0" Cut="4.4474821090698242e+00" cType="1" res="1.6117662048339844e+02" rms="1.7383644104003906e+01" purity="1.0000000000000000e+00" nType="0">
                  <Node pos="l" depth="6" NCoef="0" IVar="-1" Cut="0.0000000000000000e+00" cType="1" res="1.4401443481445312e+02" rms="1.1099303245544434e+01" purity="1.0000000000000000e+00" nType="-99"/>
                  <Node pos="r" depth="6" NCoef="0" IVar="-1" Cut="4.7020835876464844e+00" cType="1" res="1.7133378601074219e+02" rms="1.1429783821105957e+01" purity="1.0000000000000000e+00" nType="1"/>
                </Node>
                <Node pos="r" depth="5" NCoef="0" IVar="0" Cut="4.4567494392395020e+00" cType="1" res="1.9617750549316406e+02" rms="1.7081890106201172e+01" purity="1.0000000000000000e+00" nType="0">
                  <Node pos="l" depth="6" NCoef="0" IVar="-1" Cut="0.0000000000000000e+00" cType="1" res="1.8133854675292969e+02" rms="1.0081466674804688e+01" purity="1.0000000000000000e+00" nType="-99"/>
                  <Node pos="r" depth="6" NCoef="0" IVar="-1" Cut="0.0000000000000000e+00" cType="1" res="2.0895266723632812e+02" rms="1.0135293006896973e+01" purity="1.0000000000000000e+00" nType="-99"/>
                </Node>
              </Node>
            </Node>
            <Node pos="r" depth="3" NCoef="0" IVar="0" Cut="4.3217124938964844e+00" cType="1" res="2.3144404602050781e+02" rms="3.0211742401123047e+01" purity="1.0000000000000000e+00" nType="0">
              <Node pos="l" depth="4" NCoef="0" IVar="-1" Cut="3.0393021106719971e+00" cType="1" res="2.0108541870117188e+02" rms="1.9488265991210938e+01" purity="1.0000000000000000e+00" nType="1"/>
              <Node pos="r" depth="4" NCoef="0" IVar="0" Cut="4.7435379028320312e+00" cType="1" res="2.4957635498046875e+02" rms="1.8756759643554688e+01" purity="1.0000000000000000e+00" nType="0">
                <Node pos="l" depth="5" NCoef="0" IVar="-1" Cut="0.0000000000000000e+00" cType="1" res="2.3695755004882812e+02" rms="1.4152441024780273e+01" purity="1.0000000000000000e+00" nType="-99"/>
                <Node pos="r" depth="5" NCoef="0" IVar="-1" Cut="0.0000000000000000e+00" cType="1" res="2.6376049804687500e+02" rms="1.1914696693420410e+01" purity="1.0000000000000000e+00" nType="-99"/>
              </Node>
            </Node>
          </Node>
        </Node>
        <Node pos="r" depth="1" NCoef="0" IVar="0" Cut="4.0445446968078613e+00" cType="1" res="2.9134689331054688e+02" rms="6.1032688140869141e+01" purity="1.0000000000000000e+00" nType="0">
          <Node pos="l" depth="2" NCoef="0" IVar="0" Cut="2.5001552104949951e+00" cType="1" res="2.4229045104980469e+02" rms="4.8478298187255859e+01" purity="1.0000000000000000e+00" nType="0">
            <Node pos="l" depth="3" NCoef="0" IVar="1" Cut="4.3861174583435059e+00" cType="1" res="1.9262362670898438e+02" rms="3.4915153503417969e+01" purity="1.0000000000000000e+00" nType="0">
              <Node pos="l" depth="4" NCoef="0" IVar="1" Cut="4.0376372337341309e+00" cType="1" res="1.6824435424804688e+02" rms="2.1574371337890625e+01" purity="1.0000000000000000e+00" nType="0">
                <Node pos="l" depth="5" NCoef="0" IVar="-1" Cut="0.0000000000000000e+00" cType="1" res="1.5202151489257812e+02" rms="1.5690024375915527e+01" purity="1.0000000000000000e+00" nType="-99"/>
                <Node pos="r" depth="5" NCoef="0" IVar="-1" Cut="0.0000000000000000e+00" cType="1" res="1.8330952453613281e+02" rms="1.4061397552490234e+01" purity="1.0000000000000000e+00" nType="-99"/>
              </Node>
              <Node pos="r" depth="4" NCoef="0" IVar="-1" Cut="4.7336721420288086e+00" cType="1" res="2.2483908081054688e+02" rms="1.9791185379028320e+01" purity="1.0000000000000000e+00" nType="1"/>
            </Node>
            <Node pos="r" depth="3" NCoef="0" IVar="1" Cut="4.1898279190063477e+00" cType="1" res="2.6250128173828125e+02" rms="3.7391532897949219e+01" purity="1.0000000000000000e+00" nType="0">
              <Node pos="l" depth="4" NCoef="0" IVar="0" Cut="3.2337570190429688e+00" cType="1" res="2.2592492675781250e+02" rms="2.3514953613281250e+01" purity="1.0000000000000000e+00" nType="0">
                <Node pos="l" depth="5" NCoef="0" IVar="-1" Cut="0.0000000000000000e+00" cType="1" res="1.9658442687988281e+02" rms="1.4338854789733887e+01" purity="1.0000000000000000e+00" nType="-99"/>
                <Node pos="r" depth="5" NCoef="0" IVar="-1" Cut="3.8320624828338623e+00" cType="1" res="2.3467192077636719e+02" rms="1.7982055664062500e+01" purity="1.0000000000000000e+00" nType="1"/>
              </Node>
              <Node pos="r" depth="4" NCoef="0" IVar="1" Cut="4.5023703575134277e+00" cType="1" res="2.8080551147460938e+02" rms="2.8575113296508789e+01" purity="1.0000000000000000e+00" nType="0">
                <Node pos="l" depth="5" NCoef="0" IVar="0" Cut="3.4743967056274414e+00" cType="1" res="2.6183117675781250e+02" rms="1.8597856521606445e+01" purity="1.0000000000000000e+00" nType="0">
                  <Node pos="l" depth="6" NCoef="0" IVar="-1" Cut="0.0000000000000000e+00" cType="1" res="2.3878890991210938e+02" rms="1.2572319984436035e+01" purity="1.0000000000000000e+00" nType="-99"/>
                  <Node pos="r" depth="6" NCoef="0" IVar="-1" Cut="0.0000000000000000e+00" cType="1" res="2.7280645751953125e+02" rms="7.8731584548950195e+00" purity="1.0000000000000000e+00" nType="-99"/>
                </Node>
                <Node pos="r" depth="5" NCoef="0" IVar="0" Cut="3.5288670063018799e+00" cType="1" res="2.9883804321289062e+02" rms="2.4423446655273438e+01" purity="1.0000000000000000e+00" nType="0">
                  <Node pos="l" depth="6" NCoef="0" IVar="-1" Cut="3.0405502319335938e+00" cType="1" res="2.7714208984375000e+02" rms="1.3406941413879395e+01" purity="1.0000000000000000e+00" nType="1"/>
                  <Node pos="r" depth="6" NCoef="0" IVar="-1" Cut="0.0000000000000000e+00" cType="1" res="3.1693191528320312e+02" rms="1.4970598220825195e+01" purity="1.0000000000000000e+00" nType="-99"/>
                </Node>
              </Node>
            </Node>
          </Node>
          <Node pos="r" depth="2" NCoef="0" IVar="1" Cut="4.3161468505859375e+00" cType="1" res="3.3073104858398438e+02" rms="3.6682434082031250e+01" purity="1.0000000000000000e+00" nType="0">
            <Node pos="l" depth="3" NCoef="0" IVar="1" Cut="3.8567793369293213e+00" cType="1" res="2.9747683715820312e+02" rms="2.1358545303344727e+01" purity="1.0000000000000000e+00" nType="0">
              <Node pos="l" depth="4" NCoef="0" IVar="-1" Cut="0.0000000000000000e+00" cType="1" res="2.8072052001953125e+02" rms="9.5807600021362305e+00" purity="1.0000000000000000e+00" nType="-99"/>
              <Node pos="r" depth="4" NCoef="0" IVar="-1" Cut="0.0000000000000000e+00" cType="1" res="3.0936053466796875e+02" rms="1.9346071243286133e+01" purity="1.0000000000000000e+00" nType="-99"/>
            </Node>
            <Node pos="r" depth="3" NCoef="0" IVar="0" Cut="4.5918598175048828e+00" cType="1" res="3.5540359497070312e+02" rms="2.4006040573120117e+01" purity="1.0000000000000000e+00" nType="0">
              <Node pos="l" depth="4" NCoef="0" IVar="-1" Cut="0.0000000000000000e+00" cType="1" res="3.3858410644531250e+02" rms="1.2622938156127930e+01" purity="1.0000000000000000e+00" nType="-99"/>
              <Node pos="r" depth="4" NCoef="0" IVar="-1" Cut="0.0000000000000000e+00" cType="1" res="3.6870678710937500e+02" rms="2.2479900360107422e+01" purity="1.0000000000000000e+00" nType="-99"/>
            </Node>
          </Node>
        </Node>
      </Node>
    </BinaryTree>
    <BinaryTree type="DecisionTree" boostWeight="2.0532278833472777e+00" itree="5">
      <Node pos="s" depth="0" NCoef="0" IVar="1" Cut="3.5702474117279053e+00" cType="1" res="2.3973674011230469e+02" rms="9.4767700195312500e+01" purity="1.0000000000000000e+00" nType="0">
        <Node pos="l" depth="1" NCoef="0" IVar="0" Cut="3.5729935169219971e+00" cType="1" res="1.5446324157714844e+02" rms="6.6842063903808594e+01" purity="1.0000000000000000e+00" nType="0">
          <Node pos="l" depth="2" NCoef="0" IVar="1" Cut="2.5512828826904297e+00" cType="1" res="9.7342712402343750e+01" rms="4.5232875823974609e+01" purity="1.0000000000000000e+00" nType="0">
            <Node pos="l" depth="3" NCoef="0" IVar="0" Cut="2.7217624187469482e+00" cType="1" res="7.0098640441894531e+01" rms="3.2402721405029297e+01" purity="1.0000000000000000e+00" nType="0">
              <Node pos="l" depth="4" NCoef="0" IVar="1" Cut="2.0381431579589844e+00" cType="1" res="5.2125392913818359e+01" rms="2.5014057159423828e+01" purity="1.0000000000000000e+00" nType="0">
                <Node pos="l" depth="5" NCoef="0" IVar="-1" Cut="1.9449927806854248e+00" cType="1" res="4.1083885192871094e+01" rms="1.9776420593261719e+01" purity="1.0000000000000000e+00" nType="1"/>
                <Node pos="r" depth="5" NCoef="0" IVar="-1" Cut="0.0000000000000000e+00" cType="1" res="7.8321601867675781e+01" rms="1.4380561828613281e+01" purity="1.0000000000000000e+00" nType="-99"/>
              </Node>
              <Node pos="r" depth="4" NCoef="0" IVar="1" Cut="1.5513656139373779e+00" cType="1" res="9.7674041748046875e+01" rms="2.1090116500854492e+01" purity="1.0000000000000000e+00" nType="0">
                <Node pos="l" depth="5" NCoef="0" IVar="-1" Cut="0.0000000000000000e+00" cType="1" res="8.1768402099609375e+01" rms="1.4683344841003418e+01" purity="1.0000000000000000e+00" nType="-99"/>
                <Node pos="r" depth="5" NCoef="0" IVar="-1" Cut="0.0000000000000000e+00" cType="1" res="1.1178623962402344e+02" rms="1.4984167098999023e+01" purity="1.0000000000000000e+00" nType="-99"/>
              </Node>
            </Node>
            <Node pos="r" depth="3" NCoef="0" IVar="0" Cut="2.5512139797210693e+00" cType="1" res="1.3275439453125000e+02" rms="3.3495693206787109e+01" purity="1.0000000000000000e+00" nType="0">
              <Node pos="l" depth="4" NCoef="0" IVar="1" Cut="3.0472385883331299e+00" cType="1" res="1.0672919464111328e+02" rms="2.3331851959228516e+01" purity="1.0000000000000000e+00" nType="0">
                <Node pos="l" depth="5" NCoef="0" IVar="-1" Cut="0.0000000000000000e+00" cType="1" res="8.8468780517578125e+01" rms="1.8607568740844727e+01" purity="1.0000000000000000e+00" nType="-99"/>
                <Node pos="r" depth="5" NCoef="0" IVar="-1" Cut="0.0000000000000000e+00" cType="1" res="1.2149825286865234e+02" rms="1.4724537849426270e+01" purity="1.0000000000000000e+00" nType="-99"/>
              </Node>
              <Node pos="r" depth="4" NCoef="0" IVar="1" Cut="3.0950107574462891e+00" cType="1" res="1.5613067626953125e+02" rms="2.2043968200683594e+01" purity="1.0000000000000000e+00" nType="0">
                <Node pos="l" depth="5" NCoef="0" IVar="-1" Cut="0.0000000000000000e+00" cType="1" res="1.3811203002929688e+02" rms="1.3751148223876953e+01" purity="1.0000000000000000e+00" nType="-99"/>
                <Node pos="r" depth="5" NCoef="0" IVar="-1" Cut="0.0000000000000000e+00" cType="1" res="1.7014414978027344e+02" rms="1.6368125915527344e+01" purity="1.0000000000000000e+00" nType="-99"/>
              </Node>
            </Node>
          </Node>
          <Node pos="r" depth="2" NCoef="0" IVar="1" Cut="2.7131187915802002e+00" cType="1" res="1.9605007934570312e+02" rms="4.6110420227050781e+01" purity="1.0000000000000000e+00" nType="0">
            <Node pos="l" depth="3" NCoef="0" IVar="0" Cut="4.1197266578674316e+00" cType="1" res="1.6058198547363281e+02" rms="3.2179985046386719e+01" purity="1.0000000000000000e+00" nType="0">
              <Node pos="l" depth="4" NCoef="0" IVar="1" Cut="1.6762386560440063e+00" cType="1" res="1.3251538085937500e+02" rms="2.2541734695434570e+01" purity="1.0000000000000000e+00" nType="0">
                <Node pos="l" depth="5" NCoef="0" IVar="-1" Cut="0.0000000000000000e+00" cType="1" res="1.1312348937988281e+02" rms="1.3137316703796387e+01" purity="1.0000000000000000e+00" nType="-99"/>
                <Node pos="r" depth="5" NCoef="0" IVar="-1" Cut="0.0000000000000000e+00" cType="1" res="1.5084342956542969e+02" rms="1.1572802543640137e+01" purity="1.0000000000000000e+00" nType="-99"/>
              </Node>
              <Node pos="r" depth="4" NCoef="0" IVar="1" Cut="1.9286643266677856e+00" cType="1" res="1.7638233947753906e+02" rms="2.5285465240478516e+01" purity="1.0000000000000000e+00" nType="0">
                <Node pos="l" depth="5" NCoef="0" IVar="-1" Cut="4.4474821090698242e+00" cType="1" res="1.6103498840332031e+02" rms="1.7874103546142578e+01" purity="1.0000000000000000e+00" nType="1"/>
                <Node pos="r" depth="5" NCoef="0" IVar="-1" Cut="4.4567494392395020e+00" cType="1" res="1.9646916198730469e+02" rms="1.8607713699340820e+01" purity="1.0000000000000000e+00" nType="1"/>
              </Node>
            </Node>
            <Node pos="r" depth="3" NCoef="0" IVar="0" Cut="4.2606639862060547e+00" cType="1" res="2.2777828979492188e+02" rms="3.1141189575195312e+01" purity="1.0000000000000000e+00" nType="0">
              <Node pos="l" depth="4" NCoef="0" IVar="-1" Cut="3.8477184772491455e+00" cType="1" res="1.9326531982421875e+02" rms="1.9441547393798828e+01" purity="1.0000000000000000e+00" nType="1"/>
              <Node pos="r" depth="4" NCoef="0" IVar="1" Cut="2.9640688896179199e+00" cType="1" res="2.4400268554687500e+02" rms="2.0610509872436523e+01" purity="1.0000000000000000e+00" nType="0">
                <Node pos="l" depth="5" NCoef="0" IVar="-1" Cut="0.0000000000000000e+00" cType="1" res="2.2200135803222656e+02" rms="1.0961470603942871e+01" purity="1.0000000000000000e+00" nType="-99"/>
                <Node pos="r" depth="5" NCoef="0" IVar="-1" Cut="0.0000000000000000e+00" cType="1" res="2.5401962280273438e+02" rms="1.5580974578857422e+01" purity="1.0000000000000000e+00" nType="-99"/>
              </Node>
            </Node>
          </Node>
        </Node>
        <Node pos="r" depth="1" NCoef="0" IVar="0" Cut="4.2821173667907715e+00" cType="1" res="2.9600097656250000e+02" rms="6.3207271575927734e+01" purity="1.0000000000000000e+00" nType="0">
          <Node pos="l" depth="2" NCoef="0" IVar="0" Cut="2.6491060256958008e+00" cType="1" res="2.4928437805175781e+02" rms="4.9811100006103516e+01" purity="1.0000000000000000e+00" nType="0">
            <Node pos="l" depth="3" NCoef="0" IVar="1" Cut="4.4536252021789551e+00" cType="1" res="1.9441366577148438e+02" rms="3.6732234954833984e+01" purity="1.0000000000000000e+00" nType="0">
              <Node pos="l" depth="4" NCoef="0" IVar="1" Cut="3.8674771785736084e+00" cType="1" res="1.7132138061523438e+02" rms="2.4390951156616211e+01" purity="1.0000000000000000e+00" nType="0">
                <Node pos="l" depth="5" NCoef="0" IVar="-1" Cut="0.0000000000000000e+00" cType="1" res="1.4474876403808594e+02" rms="1.7002021789550781e+01" purity="1.0000000000000000e+00" nType="-99"/>
                <Node pos="r" depth="5" NCoef="0" IVar="-1" Cut="1.5070091485977173e+00" cType="1" res="1.8281359863281250e+02" rms="1.7021867752075195e+01" purity="1.0000000000000000e+00" nType="1"/>
              </Node>
              <Node pos="r" depth="4" NCoef="0" IVar="-1" Cut="1.4807211160659790e+00" cType="1" res="2.3021475219726562e+02" rms="2.0255819320678711e+01" purity="1.0000000000000000e+00" nType="1"/>
            </Node>
            <Node pos="r" depth="3" NCoef="0" IVar="1" Cut="4.6607136726379395e+00" cType="1" res="2.6956613159179688e+02" rms="3.7085025787353516e+01" purity="1.0000000000000000e+00" nType="0">
              <Node pos="l" depth="4" NCoef="0" IVar="0" Cut="3.5117576122283936e+00" cType="1" res="2.5437843322753906e+02" rms="2.7236288070678711e+01" purity="1.0000000000000000e+00" nType="0">
                <Node pos="l" depth="5" NCoef="0" IVar="1" Cut="4.1036262512207031e+00" cType="1" res="2.2489295959472656e+02" rms="2.2128000259399414e+01" purity="1.0000000000000000e+00" nType="0">
                  <Node pos="l" depth="6" NCoef="0" IVar="-1" Cut="0.0000000000000000e+00" cType="1" res="2.0736975097656250e+02" rms="1.3896463394165039e+01" purity="1.0000000000000000e+00" nType="-99"/>
                  <Node pos="r" depth="6" NCoef="0" IVar="-1" Cut="0.0000000000000000e+00" cType="1" res="2.4140290832519531e+02" rms="1.4392790794372559e+01" purity="1.0000000000000000e+00" nType="-99"/>
                </Node>
                <Node pos="r" depth="5" NCoef="0" IVar="1" Cut="3.8707540035247803e+00" cType="1" res="2.6593640136718750e+02" rms="1.9138519287109375e+01" purity="1.0000000000000000e+00" nType="0">
                  <Node pos="l" depth="6" NCoef="0" IVar="-1" Cut="0.0000000000000000e+00" cType="1" res="2.3512185668945312e+02" rms="1.3152945518493652e+01" purity="1.0000000000000000e+00" nType="-99"/>
                  <Node pos="r" depth="6" NCoef="0" IVar="-1" Cut="4.2212314605712891e+00" cType="1" res="2.7253848266601562e+02" rms="1.2675456047058105e+01" purity="1.0000000000000000e+00" nType="1"/>
                </Node>
              </Node>
              <Node pos="r" depth="4" NCoef="0" IVar="0" Cut="3.5745296478271484e+00" cType="1" res="3.1533972167968750e+02" rms="2.2228645324707031e+01" purity="1.0000000000000000e+00" nType="0">
                <Node pos="l" depth="5" NCoef="0" IVar="-1" Cut="0.0000000000000000e+00" cType="1" res="2.8347750854492188e+02" rms="9.9047307968139648e+00" purity="1.0000000000000000e+00" nType="-99"/>
                <Node pos="r" depth="5" NCoef="0" IVar="-1" Cut="0.0000000000000000e+00" cType="1" res="3.2862487792968750e+02" rms="7.7097725868225098e+00" purity="1.0000000000000000e+00" nType="-99"/>
              </Node>
            </Node>
          </Node>
          <Node pos="r" depth="2" NCoef="0" IVar="1" Cut="4.5119652748107910e+00" cType="1" res="3.4216693115234375e+02" rms="3.4688831329345703e+01" purity="1.0000000000000000e+00" nType="0">
            <Node pos="l" depth="3" NCoef="0" IVar="1" Cut="4.1085348129272461e+00" cType="1" res="3.1811450195312500e+02" rms="2.2417428970336914e+01" purity="1.0000000000000000e+00" nType="0">
              <Node pos="l" depth="4" NCoef="0" IVar="-1" Cut="0.0000000000000000e+00" cType="1" res="2.9042892456054688e+02" rms="1.2715878486633301e+01" purity="1.0000000000000000e+00" nType="-99"/>
              <Node pos="r" depth="4" NCoef="0" IVar="-1" Cut="0.0000000000000000e+00" cType="1" res="3.3243685913085938e+02" rms="8.7872638702392578e+00" purity="1.0000000000000000e+00" nType="-99"/>
            </Node>
            <Node pos="r" depth="3" NCoef="0" IVar="-1" Cut="0.0000000000000000e+00" cType="1" res="3.7316607666015625e+02" rms="1.9998306274414062e+01" purity="1.0000000000000000e+00" nType="-99"/>
          </Node>
        </Node>
      </Node>
    </BinaryTree>
    <BinaryTree type="DecisionTree" boostWeight="2.0693533350966278e+00" itree="6">
      <Node pos="s" depth="0" NCoef="0" IVar="1" Cut="3.8080496788024902e+00" cType="1" res="2.4207577514648438e+02" rms="9.7821197509765625e+01" purity="1.0000000000000000e+00" nType="0">
        <Node pos="l" depth="1" NCoef="0" IVar="0" Cut="3.8089735507965088e+00" cType="1" res="1.6583404541015625e+02" rms="7.0681259155273438e+01" purity="1.0000000000000000e+00" nType="0">
          <Node pos="l" depth="2" NCoef="0" IVar="1" Cut="2.7150588035583496e+00" cType="1" res="1.1720664978027344e+02" rms="5.1448612213134766e+01" purity="1.0000000000000000e+00" nType="0">
            <Node pos="l" depth="3" NCoef="0" IVar="0" Cut="2.3536064624786377e+00" cType="1" res="8.1578781127929688e+01" rms="3.6075805664062500e+01" purity="1.0000000000000000e+00" nType="0">
              <Node pos="l" depth="4" NCoef="0" IVar="1" Cut="1.8016312122344971e+00" cType="1" res="4.7597091674804688e+01" rms="2.2898450851440430e+01" purity="1.0000000000000000e+00" nType="0">
                <Node pos="l" depth="5" NCoef="0" IVar="-1" Cut="1.5576581954956055e+00" cType="1" res="2.8733404159545898e+01" rms="1.4255569458007812e+01" purity="1.0000000000000000e+00" nType="1"/>
                <Node pos="r" depth="5" NCoef="0" IVar="-1" Cut="2.4008512496948242e+00" cType="1" res="6.5058403015136719e+01" rms="1.3685831069946289e+01" purity="1.0000000000000000e+00" nType="1"/>
              </Node>
              <Node pos="r" depth="4" NCoef="0" IVar="0" Cut="3.2479307651519775e+00" cType="1" res="1.0086139678955078e+02" rms="2.6746240615844727e+01" purity="1.0000000000000000e+00" nType="0">
                <Node pos="l" depth="5" NCoef="0" IVar="1" Cut="1.6637235879898071e+00" cType="1" res="8.4514862060546875e+01" rms="2.1012891769409180e+01" purity="1.0000000000000000e+00" nType="0">
                  <Node pos="l" depth="6" NCoef="0" IVar="-1" Cut="1.0312570333480835e+00" cType="1" res="6.6682075500488281e+01" rms="1.1951030731201172e+01" purity="1.0000000000000000e+00" nType="1"/>
                  <Node pos="r" depth="6" NCoef="0" IVar="-1" Cut="2.3060512542724609e+00" cType="1" res="1.0046532440185547e+02" rms="1.3033307075500488e+01" purity="1.0000000000000000e+00" nType="1"/>
                </Node>
                <Node pos="r" depth="5" NCoef="0" IVar="1" Cut="1.7016415596008301e+00" cType="1" res="1.1865483856201172e+02" rms="2.0148208618164062e+01" purity="1.0000000000000000e+00" nType="0">
                  <Node pos="l" depth="6" NCoef="0" IVar="-1" Cut="0.0000000000000000e+00" cType="1" res="1.0164380645751953e+02" rms="9.8962373733520508e+00" purity="1.0000000000000000e+00" nType="-99"/>
                  <Node pos="r" depth="6" NCoef="0" IVar="-1" Cut="0.0000000000000000e+00" cType="1" res="1.3615821838378906e+02" rms="1.0897768020629883e+01" purity="1.0000000000000000e+00" nType="-99"/>
                </Node>
              </Node>
            </Node>
            <Node pos="r" depth="3" NCoef="0" IVar="0" Cut="2.7192478179931641e+00" cType="1" res="1.5608975219726562e+02" rms="3.4902332305908203e+01" purity="1.0000000000000000e+00" nType="0">
              <Node pos="l" depth="4" NCoef="0" IVar="1" Cut="3.2846276760101318e+00" cType="1" res="1.2658084869384766e+02" rms="2.3721139907836914e+01" purity="1.0000000000000000e+00" nType="0">
                <Node pos="l" depth="5" NCoef="0" IVar="-1" Cut="1.8173975944519043e+00" cType="1" res="1.1019744873046875e+02" rms="1.8409070968627930e+01" purity="1.0000000000000000e+00" nType="1"/>
                <Node pos="r" depth="5" NCoef="0" IVar="-1" Cut="2.0301091670989990e+00" cType="1" res="1.4089833068847656e+02" rms="1.7852489471435547e+01" purity="1.0000000000000000e+00" nType="1"/>
              </Node>
              <Node pos="r" depth="4" NCoef="0" IVar="1" Cut="3.3854656219482422e+00" cType="1" res="1.7944773864746094e+02" rms="2.2408897399902344e+01" purity="1.0000000000000000e+00" nType="0">
                <Node pos="l" depth="5" NCoef="0" IVar="-1" Cut="3.2534031867980957e+00" cType="1" res="1.6374931335449219e+02" rms="1.4935503005981445e+01" purity="1.0000000000000000e+00" nType="1"/>
                <Node pos="r" depth="5" NCoef="0" IVar="-1" Cut="0.0000000000000000e+00" cType="1" res="1.9878863525390625e+02" rms="1.2973521232604980e+01" purity="1.0000000000000000e+00" nType="-99"/>
              </Node>
            </Node>
          </Node>
          <Node pos="r" depth="2" NCoef="0" IVar="1" Cut="2.7182586193084717e+00" cType="1" res="2.1850325012207031e+02" rms="4.6954704284667969e+01" purity="1.0000000000000000e+00" nType="0">
            <Node pos="l" depth="3" NCoef="0" IVar="0" Cut="4.5448946952819824e+00" cType="1" res="1.6818640136718750e+02" rms="2.8518239974975586e+01" purity="1.0000000000000000e+00" nType="0">
              <Node pos="l" depth="4" NCoef="0" IVar="1" Cut="1.8003010749816895e+00" cType="1" res="1.5438427734375000e+02" rms="2.1726953506469727e+01" purity="1.0000000000000000e+00" nType="0">
                <Node pos="l" depth="5" NCoef="0" IVar="-1" Cut="4.2930889129638672e+00" cType="1" res="1.3892631530761719e+02" rms="1.5221302986145020e+01" purity="1.0000000000000000e+00" nType="1"/>
                <Node pos="r" depth="5" NCoef="0" IVar="-1" Cut="4.1562008857727051e+00" cType="1" res="1.7166516113281250e+02" rms="1.3229647636413574e+01" purity="1.0000000000000000e+00" nType="1"/>
              </Node>
              <Node pos="r" depth="4" NCoef="0" IVar="1" Cut="1.8477326631546021e+00" cType="1" res="1.9197903442382812e+02" rms="2.2517463684082031e+01" purity="1.0000000000000000e+00" nType="0">
                <Node pos="l" depth="5" NCoef="0" IVar="-1" Cut="0.0000000000000000e+00" cType="1" res="1.7374333190917969e+02" rms="1.2259482383728027e+01" purity="1.0000000000000000e+00" nType="-99"/>
                <Node pos="r" depth="5" NCoef="0" IVar="-1" Cut="0.0000000000000000e+00" cType="1" res="2.1132284545898438e+02" rms="1.2590634346008301e+01" purity="1.0000000000000000e+00" nType="-99"/>
              </Node>
            </Node>
            <Node pos="r" depth="3" NCoef="0" IVar="0" Cut="4.5085506439208984e+00" cType="1" res="2.4694245910644531e+02" rms="2.7412372589111328e+01" purity="1.0000000000000000e+00" nType="0">
              <Node pos="l" depth="4" NCoef="0" IVar="1" Cut="3.1880266666412354e+00" cType="1" res="2.2592532348632812e+02" rms="1.8224380493164062e+01" purity="1.0000000000000000e+00" nType="0">
